Pelvis,SpineNavel,SpineChest,Neck,ClavicleLeft,ShoulderLeft,ElbowLeft,WristLeft,HandLeft,HandTipLeft,ThumbLeft,ClavicleRight,ShoulderRight,ElbowRight,WristRight,HandRight,HandTipRight,ThumbRight,HipLeft,KneeLeft,AnkleLeft,FootLeft,HipRight,KneeRight,AnkleRight,FootRight,Head,Nose,EyeLeft,EarLeft,EyeRight,EarRight
-0.0031308765 -0.17032118 1.7348484,-0.005411175 -0.32933688 1.685395,-0.0063160914 -0.45640764 1.6456529,-0.0053102486 -0.65507054 1.6055623,-0.0014095168 -0.62867284 1.6427317,0.059522428 -0.623246 1.7613324,0.24444258 -0.45486808 1.824588,0.43241882 -0.376458 1.7511325,0.5216012 -0.36755267 1.7442404,0.6032908 -0.3262131 1.7019012,0.47700644 -0.28095496 1.719757,-0.011461389 -0.6159089 1.5820466,-0.010969974 -0.55929303 1.4731154,0.20760363 -0.41443673 1.4548973,0.4256028 -0.41082388 1.4780617,0.51900953 -0.4253237 1.4988619,0.613777 -0.44806346 1.5170951,0.52361023 -0.42017886 1.4642918,0.016137563 -0.19519448 1.8139391,0.05682165 0.17612544 1.8024944,-0.021327928 0.524434 1.8141541,0.11947589 0.6019994 1.8830166,-0.020506073 -0.14789183 1.6635288,-0.0028494075 0.21785955 1.7361813,-0.09073773 0.56246793 1.7976695,0.003999181 0.67883563 1.8557457,0.0074188514 -0.72834843 1.5887322,0.14977948 -0.76534605 1.5593017,0.12302051 -0.7970221 1.5910935,0.031774066 -0.7840905 1.6653358,0.11638632 -0.7960632 1.5427485,-0.0025730876 -0.7925029 1.5145416
-0.0031293435 -0.17032196 1.7348487,-0.005409676 -0.32933795 1.6853952,-0.0063146385 -0.45640895 1.6456531,-0.0053090462 -0.6550722 1.6055624,-0.0014081984 -0.62867445 1.6427318,0.05952836 -0.62325 1.7613306,0.2444664 -0.45488727 1.8245761,0.43244374 -0.3764902 1.7511084,0.5216265 -0.36759162 1.74421,0.6033163 -0.32625747 1.7018656,0.47703648 -0.28098983 1.7197315,-0.011460223 -0.61591053 1.5820467,-0.010969171 -0.55929375 1.4731157,0.20760463 -0.4144367 1.4548991,0.4256044 -0.41082153 1.4780614,0.51901215 -0.42532226 1.4988574,0.6137757 -0.4480795 1.5170904,0.52361095 -0.4201757 1.4642855,0.01613921 -0.19519527 1.8139396,0.0568275 0.17612492 1.8024957,-0.021313965 0.52443606 1.8141539,0.11949867 0.6019987 1.8830023,-0.020504646 -0.1478926 1.663529,-0.0028481875 0.21785942 1.736182,-0.090736955 0.5624683 1.7976708,0.003999032 0.67883474 1.8557519,0.007419982 -0.7283502 1.5887325,0.1497797 -0.7653528 1.5593023,0.12301932 -0.79702824 1.5910935,0.031772703 -0.7840942 1.6653355,0.11638545 -0.7960686 1.5427486,-0.0025738624 -0.7925036 1.5145409
0.008185484 -0.17303415 1.7392181,0.0045106565 -0.3319001 1.6884717,0.002209906 -0.45883286 1.6476343,-0.005653842 -0.65778345 1.6080651,0.0014278074 -0.63144946 1.6448997,0.061307672 -0.6297127 1.7643888,0.25249064 -0.46673533 1.8248196,0.44245362 -0.39231372 1.7512875,0.52949744 -0.37229937 1.7399119,0.6082232 -0.32269856 1.7005434,0.47417015 -0.29042503 1.7225255,-0.012030565 -0.6184013 1.5848324,-0.014758877 -0.55858666 1.4774293,0.20889175 -0.42086825 1.4593033,0.4266814 -0.39650458 1.473579,0.51617265 -0.42712766 1.4948332,0.6044999 -0.46832013 1.5139092,0.52167124 -0.4212212 1.4588033,0.042222343 -0.19753289 1.8134487,0.05626927 0.1751816 1.7817346,-0.0214688 0.52304745 1.8121233,0.13502687 0.5963622 1.8407193,-0.02250705 -0.15094255 1.6722811,-0.0025843885 0.21749775 1.7328833,-0.09050615 0.561249 1.8020848,0.0067847967 0.67812324 1.8554564,0.00366429 -0.73156524 1.5906503,0.14529754 -0.7707027 1.559297,0.117548235 -0.803486 1.589201,0.026300982 -0.79239655 1.6640449,0.111085 -0.7995378 1.5409044,-0.00783819 -0.79110914 1.5127164
0.008072375 -0.1699148 1.7396795,0.009544337 -0.3300657 1.6909105,0.007986469 -0.4584881 1.6532385,-0.0042451327 -0.6569018 1.6086272,0.0037408806 -0.63155675 1.6461707,0.06329794 -0.63772994 1.7662152,0.25731587 -0.48053962 1.8361927,0.44552153 -0.40598014 1.7562423,0.52864873 -0.37652585 1.736552,0.6072365 -0.32137015 1.7039374,0.4747363 -0.29529923 1.7230848,-0.010084699 -0.61668426 1.5863723,-0.015708873 -0.55198646 1.48143,0.21289353 -0.42131108 1.4594738,0.43029058 -0.38763458 1.4730353,0.51878774 -0.4245794 1.4894578,0.6155252 -0.44800058 1.4946781,0.52256566 -0.42448884 1.4573361,0.046468664 -0.1918676 1.8129283,0.060360417 0.18237372 1.7831649,-0.025607154 0.5279312 1.8290459,0.1244237 0.60596174 1.8770897,-0.026551243 -0.15011898 1.6736277,-0.004031541 0.21937004 1.7352921,-0.088567466 0.5644138 1.8089821,0.007558465 0.6791135 1.8703481,0.003467936 -0.7306555 1.5892092,0.1447056 -0.7739682 1.55897,0.115491256 -0.80632395 1.5882703,0.023395352 -0.7932002 1.6624233,0.10971915 -0.8016216 1.5397747,-0.008964211 -0.7891516 1.5101784
0.007978519 -0.16980195 1.7399491,0.009401817 -0.3299148 1.6912379,0.00775099 -0.4583122 1.6536374,-0.0046859113 -0.65667796 1.6091684,0.003254477 -0.63132405 1.6466975,0.062471785 -0.6374063 1.7668666,0.25679162 -0.48087552 1.8371761,0.44531542 -0.4070649 1.7574706,0.52849096 -0.37781954 1.737806,0.6070479 -0.32276043 1.7050551,0.47474042 -0.29654527 1.7239648,-0.0104126 -0.61648184 1.5868765,-0.015512314 -0.55174965 1.4819751,0.21339618 -0.42168444 1.4606119,0.4307544 -0.38867337 1.4752413,0.5185305 -0.425633 1.4949803,0.6143569 -0.45117074 1.5046086,0.5231563 -0.42508665 1.4615154,0.04632487 -0.1917447 1.8131951,0.061554722 0.18238626 1.7842298,-0.023456752 0.52802104 1.8304079,0.12705922 0.6050341 1.8783696,-0.026600072 -0.1500152 1.6739,-0.0042173956 0.21947035 1.7348995,-0.08868724 0.5644649 1.8083229,0.007793486 0.6792503 1.8688293,0.0029530786 -0.7304351 1.5898311,0.14381033 -0.7749738 1.5598404,0.114307016 -0.8070117 1.5891703,0.02227781 -0.7929661 1.6631758,0.10862547 -0.8023671 1.5406743,-0.009881623 -0.7889766 1.5109382
0.007973762 -0.16980281 1.739948,0.009389976 -0.3299149 1.6912313,0.0077270186 -0.45831245 1.6536294,-0.0047465423 -0.6566745 1.6091492,0.0032023275 -0.63132405 1.646679,0.062472347 -0.6374322 1.7668215,0.2568617 -0.48095948 1.837073,0.44536567 -0.40717953 1.7572892,0.5285392 -0.3779497 1.7375908,0.60709393 -0.32290214 1.704814,0.47480044 -0.29665917 1.7237943,-0.010469543 -0.6164758 1.5868604,-0.0155770015 -0.55174357 1.4819587,0.21334648 -0.42171246 1.4605318,0.4307098 -0.3887082 1.4751182,0.51848906 -0.4256789 1.494825,0.61412996 -0.45182806 1.5046589,0.5230849 -0.4251142 1.4612885,0.04632128 -0.19174956 1.8131927,0.06160883 0.18238421 1.7842691,-0.023369014 0.5280246 1.8304818,0.12715004 0.6050085 1.878484,-0.026605885 -0.15001246 1.6739001,-0.004210608 0.21947348 1.734904,-0.08866376 0.5644721 1.8083366,0.007831201 0.6792496 1.8688374,0.0028785495 -0.730432 1.5898062,0.1436871 -0.7750764 1.5597403,0.11417127 -0.8070981 1.5890757,0.022186533 -0.7929971 1.663127,0.10847138 -0.8024368 1.5405833,-0.010039054 -0.78894377 1.5109041
0.00797363 -0.1698028 1.739948,0.009389754 -0.3299149 1.6912313,0.00772665 -0.45831245 1.6536294,-0.004747299 -0.65667444 1.6091492,0.003201629 -0.63132405 1.646679,0.06247117 -0.6374323 1.7668217,0.25686026 -0.48095962 1.837074,0.44536465 -0.4071799 1.7572911,0.5285383 -0.37795013 1.737593,0.6070933 -0.32290265 1.7048166,0.47479966 -0.2966596 1.7237962,-0.01047023 -0.61647576 1.5868603,-0.015577576 -0.5517434 1.4819586,0.2133462 -0.42171276 1.4605317,0.4307096 -0.388709 1.475118,0.5184887 -0.42568013 1.4948246,0.6141281 -0.45183423 1.5046605,0.52308446 -0.42511538 1.4612881,0.04632115 -0.19174957 1.8131927,0.061609153 0.18238413 1.7842691,-0.023368191 0.5280247 1.8304815,0.12715107 0.60500824 1.8784835,-0.02660602 -0.15001243 1.6739001,-0.0042105354 0.21947351 1.7349042,-0.08866352 0.56447214 1.808337,0.007831253 0.6792494 1.8688383,0.002877649 -0.7304319 1.5898062,0.14368585 -0.7750774 1.5597402,0.11416978 -0.8070989 1.5890756,0.022185184 -0.79299736 1.6631268,0.1084699 -0.80243754 1.5405831,-0.01004044 -0.7889435 1.5109041
0.003924419 -0.16688481 1.7417768,0.0053076562 -0.32739997 1.6937122,0.006786621 -0.45565635 1.655074,-0.009628185 -0.6534289 1.6082134,-0.0008734083 -0.6286646 1.6460207,0.058814727 -0.6325739 1.7662243,0.25293088 -0.47991246 1.8460866,0.44760835 -0.4126499 1.7751591,0.52406704 -0.3772628 1.7422762,0.60338163 -0.32627463 1.7047391,0.474239 -0.3003965 1.7244216,-0.014851511 -0.6128123 1.5864525,-0.017956357 -0.5455747 1.4828857,0.21603112 -0.42426783 1.4611578,0.4323904 -0.38536763 1.479562,0.5211052 -0.42421126 1.4897379,0.6184006 -0.4447008 1.4816848,0.5208685 -0.42877096 1.4582672,0.047901463 -0.18761674 1.8122782,0.05991279 0.18757099 1.7906284,-0.01787455 0.53668165 1.8252494,0.13870865 0.6012365 1.8729347,-0.035731617 -0.14818993 1.6782027,-0.012080414 0.2229144 1.7310885,-0.09941034 0.56690156 1.8079332,0.017429873 0.67865163 1.7997242,-0.0034826472 -0.72714794 1.5878657,0.13448007 -0.77993107 1.5569154,0.10378944 -0.8096099 1.5875894,0.01376719 -0.7887327 1.6626699,0.097544625 -0.8059466 1.53902,-0.020713262 -0.78705716 1.510709
0.0035805877 -0.16752954 1.7413011,0.004622695 -0.32794327 1.6935804,0.00591587 -0.45610327 1.6551648,-0.010246047 -0.6539653 1.6096617,-0.0014935555 -0.62897307 1.6472527,0.060863912 -0.6329108 1.7659132,0.2544636 -0.48031434 1.8461565,0.44808078 -0.40917936 1.7769151,0.52471954 -0.37538913 1.7430792,0.60421646 -0.32626018 1.7038124,0.47437963 -0.29906616 1.7239867,-0.015547799 -0.6135462 1.5876698,-0.018406058 -0.5465843 1.4840914,0.21559295 -0.42585135 1.463105,0.43144813 -0.3856637 1.4815395,0.5190966 -0.42599872 1.4938326,0.6113179 -0.46351856 1.4977132,0.51932424 -0.43080497 1.4622166,0.04779304 -0.18814509 1.811566,0.06150357 0.18610834 1.7834378,-0.019127596 0.53425556 1.8168268,0.13534161 0.6006109 1.8680384,-0.03628772 -0.1489396 1.6779401,-0.014709098 0.22205195 1.7293317,-0.09893264 0.5659942 1.8078012,0.017176546 0.6785222 1.8066591,-0.0040241247 -0.7277186 1.589809,0.13360086 -0.7810589 1.559181,0.1031583 -0.81003094 1.5906608,0.013714604 -0.78756213 1.6657504,0.09660819 -0.8074447 1.542121,-0.0216982 -0.7892479 1.5141934
0.0034365978 -0.16962403 1.7453269,0.0040727346 -0.3294527 1.6956533,0.0059626196 -0.4569537 1.6551107,-0.011748202 -0.6547073 1.6096779,-0.0030895022 -0.6297575 1.6473209,0.049786903 -0.63313246 1.7705213,0.24253932 -0.48255968 1.8564572,0.4402552 -0.41666657 1.7939086,0.50959384 -0.37613994 1.75255,0.59018433 -0.33098668 1.7108074,0.47200245 -0.30707905 1.7250535,-0.016449064 -0.6142623 1.5875936,-0.01875555 -0.54600257 1.4848462,0.21625994 -0.42723137 1.4638966,0.43189916 -0.38542065 1.4813219,0.5178149 -0.42714217 1.4997288,0.6107172 -0.46233755 1.5073947,0.5183303 -0.43081293 1.4621898,0.049208783 -0.1909056 1.8143882,0.06687987 0.18251875 1.7783655,-0.017160758 0.5285355 1.8235563,0.14034374 0.5975192 1.85992,-0.037838195 -0.1504335 1.6830512,-0.015256306 0.2209002 1.7315646,-0.09860844 0.564724 1.8115332,0.016355798 0.67795306 1.8010637,-0.0060780277 -0.728545 1.5899627,0.13163093 -0.78313386 1.5619998,0.10055304 -0.81151175 1.5934033,0.010184936 -0.78752637 1.6669074,0.094716154 -0.80950433 1.5447433,-0.023062512 -0.790925 1.5148833
0.0038278745 -0.17000395 1.7480989,0.004737952 -0.3289931 1.6971184,0.0044613197 -0.45629227 1.6569698,-0.012558967 -0.65354145 1.611292,-0.0038558654 -0.6286973 1.6488585,0.05320272 -0.6324309 1.7698087,0.24316521 -0.4818249 1.859904,0.4397276 -0.4145196 1.7970574,0.50946224 -0.37616056 1.7547854,0.58935183 -0.33166066 1.7116145,0.47162977 -0.30819845 1.7258376,-0.017525472 -0.613167 1.5893726,-0.0191011 -0.5451385 1.4868171,0.21615201 -0.42838222 1.4652822,0.4312048 -0.3866978 1.4834926,0.5178547 -0.42636412 1.5017564,0.61167073 -0.45855272 1.5082893,0.5179782 -0.43093666 1.464421,0.0496052 -0.19175594 1.8167524,0.0664003 0.18135442 1.7871035,-0.019137949 0.52703273 1.8244978,0.13260782 0.5999813 1.8733944,-0.037451554 -0.15038922 1.686191,-0.020677136 0.22094032 1.7298199,-0.10009133 0.5650387 1.8086228,0.009981245 0.6821462 1.7948234,-0.006673679 -0.7271314 1.5914356,0.13011615 -0.78137285 1.5604198,0.099546 -0.81016356 1.5917331,0.010622188 -0.7873415 1.6668845,0.092962265 -0.80729717 1.543332,-0.024942875 -0.7880007 1.5157369
0.0038761112 -0.17017564 1.7481655,0.00478516 -0.32916564 1.697182,0.004509204 -0.45646518 1.6570301,-0.012496003 -0.65372753 1.6113944,-0.003796162 -0.62887424 1.6489563,0.053913467 -0.63294476 1.7695876,0.24442944 -0.48277077 1.859242,0.4407205 -0.415223 1.7958026,0.5102697 -0.3766119 1.7534528,0.58996177 -0.33184335 1.7101922,0.4722442 -0.30843836 1.7251396,-0.017464276 -0.6133578 1.5894657,-0.019035289 -0.54535425 1.4868921,0.21621944 -0.42860055 1.4653286,0.43126917 -0.38688862 1.4835382,0.51793295 -0.42652544 1.5018053,0.61046803 -0.46177346 1.5104814,0.5180385 -0.43111256 1.4644452,0.049652144 -0.19192949 1.8168204,0.06678946 0.18120956 1.7876856,-0.018757567 0.5268239 1.8256807,0.13301215 0.60000956 1.8741533,-0.03740215 -0.15055925 1.6862563,-0.020670611 0.22079787 1.7296988,-0.099869065 0.56499946 1.8082844,0.010292821 0.6818165 1.7928178,-0.006604842 -0.7273222 1.5915542,0.13023126 -0.7816592 1.5609049,0.09960692 -0.8103643 1.5922447,0.010562114 -0.7873347 1.6671913,0.093102306 -0.80762535 1.5438249,-0.024756916 -0.7883905 1.5159864
0.0049315146 -0.17121567 1.7507374,0.004544076 -0.33023807 1.699087,0.0030091968 -0.45759907 1.6585389,-0.013301466 -0.6550374 1.6121502,-0.0049050944 -0.6302414 1.6498969,0.0529519 -0.6357201 1.7706096,0.24181405 -0.48432845 1.8627262,0.43500736 -0.40862244 1.7979625,0.50855863 -0.37679598 1.7564723,0.5875687 -0.3334077 1.71032,0.47169912 -0.3090799 1.7254605,-0.018202357 -0.6145576 1.590273,-0.018989597 -0.54573655 1.4880294,0.21732897 -0.43019542 1.4670653,0.43235493 -0.38658407 1.4848164,0.5192441 -0.42666513 1.5017141,0.6135496 -0.4582713 1.5056677,0.5180987 -0.43163252 1.4634364,0.050765228 -0.19359663 1.8193007,0.06952603 0.17992178 1.7892923,-0.016409785 0.5252398 1.8333466,0.13414514 0.6056363 1.8745229,-0.03639876 -0.15103377 1.688911,-0.019442901 0.22039302 1.7360313,-0.09507893 0.56778896 1.8059229,0.00659585 0.6872195 1.8445568,-0.0071144863 -0.7286653 1.5921117,0.12956618 -0.7839178 1.5613722,0.09912402 -0.811969 1.5935919,0.0106300935 -0.78724 1.6689117,0.09220256 -0.8102004 1.5451155,-0.026025467 -0.7913125 1.5178528
0.001653216 -0.17150864 1.7548103,0.004972898 -0.33047622 1.7024963,0.005138711 -0.45801514 1.6619867,-0.011914655 -0.6554632 1.614915,-0.0035119103 -0.63078773 1.6528014,0.055871762 -0.6388018 1.7727951,0.2473748 -0.4913757 1.8666872,0.4389689 -0.41757825 1.7945722,0.51000667 -0.37955642 1.7537026,0.58919233 -0.3326249 1.7112157,0.47173876 -0.3094061 1.7260894,-0.01658003 -0.6148529 1.5931189,-0.01869593 -0.54599524 1.4907528,0.21753256 -0.4301288 1.46704,0.43251294 -0.38518667 1.4850695,0.5187498 -0.4258647 1.5043399,0.6129757 -0.45785478 1.5096644,0.5174333 -0.43216884 1.4650937,0.043334547 -0.19407567 1.8260301,0.07281205 0.1793251 1.7979981,-0.013933711 0.5260126 1.8317682,0.13090214 0.6085526 1.8874857,-0.03593267 -0.15115894 1.6905882,-0.019925967 0.22130205 1.7329671,-0.09427486 0.5691907 1.8038794,0.0073659346 0.6866671 1.8488314,-0.005983059 -0.7291403 1.5946547,0.1293716 -0.7855458 1.5596184,0.09947908 -0.81364876 1.5923982,0.013222903 -0.78876954 1.6704249,0.09126198 -0.8112945 1.544094,-0.027582884 -0.7908698 1.5202136
0.0026185696 -0.17105351 1.7557027,0.0042187646 -0.3307349 1.7036427,0.004972639 -0.458491 1.6623139,-0.011984311 -0.6565051 1.6145622,-0.0031499313 -0.6318535 1.6525576,0.058771394 -0.6402267 1.7717564,0.25128916 -0.49276492 1.8659761,0.44243744 -0.41810402 1.7913548,0.5127539 -0.3777138 1.7508252,0.592688 -0.3303057 1.7094525,0.47207344 -0.30726123 1.7255254,-0.01711259 -0.61569333 1.5929089,-0.019947905 -0.5460646 1.4905709,0.21775883 -0.43126127 1.4663559,0.43342298 -0.3858642 1.4843307,0.52051026 -0.424367 1.5058059,0.59338653 -0.4842497 1.5389957,0.51946044 -0.43085608 1.4646758,0.04590986 -0.19363834 1.8263068,0.06950632 0.18141638 1.7975097,-0.010807402 0.53058344 1.834588,0.13985246 0.6058803 1.886923,-0.03641909 -0.15068778 1.6920359,-0.020090396 0.22304595 1.7344974,-0.09590448 0.57211864 1.8044063,0.008730188 0.68630403 1.8528336,-0.0060113505 -0.73033446 1.593877,0.13121907 -0.786261 1.5634434,0.1002728 -0.8145727 1.595343,0.010981172 -0.7899574 1.6706128,0.09366641 -0.8123227 1.5466175,-0.024809353 -0.7924954 1.5185865
0.0026219091 -0.17104211 1.7556989,0.0042245854 -0.3307231 1.7036383,0.004983833 -0.45847827 1.6623071,-0.011958489 -0.65649205 1.6145495,-0.003125473 -0.631841 1.6525455,0.05877338 -0.64019686 1.771757,0.25124955 -0.4926939 1.8659966,0.44240203 -0.41801828 1.7914014,0.512721 -0.37762535 1.7508789,0.5926572 -0.330214 1.7095144,0.4720365 -0.30718285 1.7255589,-0.017090231 -0.61568 1.5928974,-0.019937174 -0.54605156 1.4905597,0.21774875 -0.43120754 1.466335,0.43340334 -0.38575405 1.4842805,0.52052647 -0.4242003 1.5057113,0.593472 -0.48402715 1.5388496,0.5194649 -0.4306843 1.464585,0.04591373 -0.19362651 1.8263028,0.06947549 0.1814283 1.7974831,-0.010870822 0.5305883 1.8345536,0.13975248 0.6059462 1.8869054,-0.036416233 -0.15067677 1.6920323,-0.020094324 0.22305639 1.7344986,-0.09591657 0.57212585 1.8044131,0.0087111 0.68631357 1.8528495,-0.005980126 -0.7303202 1.5938618,0.13126025 -0.78623426 1.5634509,0.1003111 -0.814549 1.5953449,0.011004664 -0.78994256 1.6705999,0.093712755 -0.812299 1.5466182,-0.024759926 -0.79248184 1.5185676
0.0026223978 -0.17104152 1.7556994,0.0042247223 -0.3307221 1.7036377,0.004983826 -0.4584769 1.6623057,-0.01195858 -0.65649 1.6145461,-0.003125323 -0.6318394 1.6525422,0.05876933 -0.6401944 1.7717559,0.25123933 -0.49268764 1.8660017,0.44239348 -0.41801053 1.7914128,0.51271343 -0.37761724 1.7508925,0.59265053 -0.33020544 1.7095304,0.472029 -0.3071757 1.72557,-0.01709053 -0.6156778 1.5928944,-0.019939348 -0.54604894 1.4905572,0.21774375 -0.4312002 1.4663299,0.43339694 -0.3857382 1.4842678,0.5205274 -0.42417452 1.505686,0.5935091 -0.48397386 1.5387942,0.51946187 -0.43065694 1.4645603,0.0459142 -0.19362642 1.826303,0.06948131 0.18142839 1.797491,-0.01086279 0.5305879 1.8345687,0.1397614 0.6059406 1.8869252,-0.036415722 -0.15067571 1.692033,-0.020092955 0.22305691 1.7345014,-0.09591438 0.57212585 1.8044177,0.00871291 0.6863129 1.8528563,-0.0059802807 -0.73031795 1.5938576,0.13125853 -0.78623486 1.5634454,0.10030882 -0.8145493 1.5953391,0.011003301 -0.7899419 1.6705947,0.09371038 -0.8122984 1.5466124,-0.02476181 -0.7924779 1.5185622
0.002810575 -0.17062633 1.7564534,0.004561333 -0.33043876 1.704001,0.0055561243 -0.45827758 1.6622902,-0.011281555 -0.6563222 1.6133447,-0.002563754 -0.63184005 1.6515588,0.06017957 -0.64014024 1.7705572,0.2510888 -0.49141848 1.8671024,0.4404566 -0.41518065 1.7886881,0.5122307 -0.37603828 1.7492028,0.5934844 -0.3296527 1.7088856,0.47255027 -0.30465516 1.7244799,-0.016337413 -0.61533356 1.5918615,-0.018616421 -0.5450597 1.4897295,0.22022796 -0.43174827 1.4653931,0.43616432 -0.38651335 1.4844939,0.52365994 -0.4214424 1.5105801,0.59921795 -0.47636417 1.5466716,0.5234886 -0.42777255 1.465433,0.04598509 -0.19338246 1.8272281,0.07153827 0.18214329 1.7989546,-0.012153573 0.53094035 1.8371962,0.13278073 0.61053574 1.8993051,-0.036121786 -0.15010613 1.6926328,-0.020071268 0.22420648 1.7350342,-0.09445348 0.57428515 1.8042479,0.006467536 0.68657804 1.8643726,-0.005236009 -0.73014903 1.592253,0.13164668 -0.78751045 1.5618128,0.1008316 -0.814958 1.5947077,0.012240477 -0.7881175 1.6703237,0.09376256 -0.8138207 1.5459349,-0.025058411 -0.79406667 1.518518
0.0028145448 -0.1706263 1.7564608,0.0045662737 -0.33043674 1.7040062,0.0055630165 -0.45827377 1.6622931,-0.011269042 -0.65631676 1.6133453,-0.0025523314 -0.63183504 1.6515595,0.060180716 -0.6401303 1.7705625,0.25107056 -0.49139518 1.8671204,0.4404391 -0.41515118 1.7887183,0.5122137 -0.37600708 1.7492374,0.5934676 -0.3296194 1.7089248,0.47253188 -0.30462766 1.7245082,-0.01632566 -0.61532825 1.5918627,-0.01860619 -0.54505366 1.4897323,0.22023097 -0.43173045 1.4654006,0.43616244 -0.3864768 1.4844937,0.523675 -0.4213829 1.5105509,0.599336 -0.47621813 1.5465562,0.52349716 -0.42771223 1.4654182,0.045988195 -0.19338325 1.827235,0.07155271 0.1821419 1.799,-0.012155115 0.5309273 1.8372887,0.13278563 0.6105112 1.8993938,-0.036117032 -0.15010536 1.6926407,-0.020078223 0.22420588 1.7350348,-0.0944545 0.57428354 1.804246,0.0066935495 0.6865512 1.8640324,-0.005221459 -0.73014265 1.5922529,0.13166185 -0.7875064 1.5618254,0.100842744 -0.8149539 1.5947158,0.012245037 -0.7881139 1.6703228,0.09377892 -0.8138149 1.5459428,-0.025037743 -0.7940567 1.5185142
0.0028146177 -0.17062627 1.756461,0.0045663863 -0.3304367 1.7040064,0.0055631935 -0.4582737 1.6622932,-0.011268701 -0.65631676 1.6133453,-0.0025520278 -0.63183504 1.6515595,0.060181152 -0.6401302 1.7705625,0.2510709 -0.4913948 1.8671203,0.44043928 -0.41515058 1.788718,0.5122138 -0.3760064 1.749237,0.5934676 -0.3296186 1.7089243,0.47253183 -0.304627 1.7245077,-0.01632534 -0.61532825 1.5918627,-0.018605862 -0.5450536 1.4897323,0.22023119 -0.43173003 1.4654012,0.4361626 -0.38647607 1.4844942,0.52367544 -0.4213819 1.510551,0.5993375 -0.47621623 1.5465554,0.52349746 -0.42771104 1.4654185,0.04598825 -0.19338325 1.8272352,0.07155317 0.18214199 1.7990018,-0.012154638 0.53092724 1.8372921,0.13278629 0.6105106 1.8993974,-0.036116946 -0.1501053 1.6926408,-0.020078188 0.22420594 1.7350351,-0.09445445 0.5742837 1.8042463,0.006693758 0.6865513 1.8640326,-0.005221055 -0.73014265 1.5922527,0.13166234 -0.7875063 1.5618253,0.10084322 -0.8149539 1.5947156,0.012245387 -0.78811413 1.6703227,0.093779474 -0.8138147 1.5459425,-0.025037177 -0.79405653 1.5185138
0.0028146177 -0.17062627 1.756461,0.0045663863 -0.3304367 1.7040064,0.0055631935 -0.4582737 1.6622932,-0.011268701 -0.65631676 1.6133453,-0.0025520278 -0.63183504 1.6515595,0.060181152 -0.6401302 1.7705625,0.2510709 -0.4913948 1.8671203,0.44043928 -0.41515058 1.788718,0.5122138 -0.3760064 1.749237,0.5934676 -0.3296186 1.7089243,0.47253183 -0.304627 1.7245077,-0.01632534 -0.61532825 1.5918627,-0.018605862 -0.5450536 1.4897323,0.22023119 -0.43173003 1.4654012,0.4361626 -0.38647607 1.4844942,0.52367544 -0.4213819 1.510551,0.5993375 -0.47621623 1.5465554,0.52349746 -0.42771104 1.4654185,0.04598825 -0.19338325 1.8272352,0.07155317 0.18214199 1.7990018,-0.012154638 0.53092724 1.8372921,0.13278629 0.6105106 1.8993974,-0.036116946 -0.1501053 1.6926408,-0.020078188 0.22420594 1.7350351,-0.09445445 0.5742837 1.8042463,0.006693758 0.6865513 1.8640326,-0.005221055 -0.73014265 1.5922527,0.13166234 -0.7875063 1.5618253,0.10084322 -0.8149539 1.5947156,0.012245387 -0.78811413 1.6703227,0.093779474 -0.8138147 1.5459425,-0.025037177 -0.79405653 1.5185138
0.0018045928 -0.1702018 1.7568108,0.0044328063 -0.32987338 1.7049147,0.005423555 -0.45772636 1.664015,-0.013967013 -0.6552949 1.615594,-0.0055920556 -0.63085455 1.6538135,0.050299976 -0.64055485 1.7758156,0.24536261 -0.4956708 1.8685875,0.4377147 -0.42746723 1.791112,0.50557375 -0.3801694 1.7540729,0.58704174 -0.33274913 1.7159001,0.46931702 -0.31026196 1.7258315,-0.017843066 -0.6143854 1.5938926,-0.018370206 -0.54477894 1.4915435,0.22267115 -0.43609738 1.4736929,0.4371161 -0.38492626 1.4898943,0.5280577 -0.41823518 1.5018374,0.61984897 -0.45670477 1.5111814,0.52580756 -0.42672366 1.4681454,0.043783087 -0.19271281 1.8281976,0.0669394 0.18236986 1.8008263,-0.012744926 0.53155327 1.8381265,0.13280478 0.6106251 1.898562,-0.03604926 -0.14990261 1.6924381,-0.020296937 0.2238631 1.7338877,-0.09615497 0.57273424 1.804222,0.008819729 0.68472254 1.8567204,-0.008842217 -0.72917736 1.5949512,0.12803768 -0.788539 1.5701839,0.09535634 -0.815701 1.6013191,0.0040623243 -0.788069 1.6730014,0.09053349 -0.813986 1.552377,-0.026362479 -0.7919334 1.5198833
0.001396904 -0.1705441 1.7565875,0.0040531238 -0.33019143 1.7044405,0.005067955 -0.45802495 1.6633366,-0.014030383 -0.6558843 1.6157101,-0.0058178045 -0.63126004 1.6538651,0.048210554 -0.6390836 1.7768861,0.24400038 -0.49611452 1.8713217,0.43828717 -0.42980734 1.7968853,0.5049436 -0.38260543 1.7575392,0.58475125 -0.33428672 1.7169718,0.46798286 -0.31433234 1.7277125,-0.017843327 -0.61506134 1.593803,-0.01782764 -0.545382 1.491453,0.22329205 -0.43659648 1.4740062,0.4377659 -0.38565078 1.4914762,0.5285562 -0.41898474 1.5046943,0.6113975 -0.47013974 1.5274956,0.52579045 -0.42748868 1.4689319,0.043258775 -0.1931853 1.8280355,0.066396415 0.18193197 1.799447,-0.010353409 0.5323659 1.8320143,0.13849013 0.603855 1.894021,-0.03635178 -0.15012753 1.6921597,-0.02000277 0.22358035 1.7349983,-0.09500425 0.57265043 1.8058801,0.0072782487 0.6848487 1.8631885,-0.008782262 -0.7298801 1.5954129,0.12734962 -0.788427 1.5649378,0.09642108 -0.81544924 1.5979574,0.008352667 -0.787614 1.6735549,0.08926434 -0.8144395 1.5492656,-0.029276691 -0.7938169 1.522071
0.00064987043 -0.17076492 1.7543235,0.0020936925 -0.3303483 1.7022991,0.0019182613 -0.45815766 1.6614051,-0.015211913 -0.65596557 1.6134112,-0.007851796 -0.631328 1.6516936,0.04273445 -0.63825625 1.7761241,0.23457956 -0.49394387 1.8759724,0.43040633 -0.4278033 1.8059896,0.49969375 -0.38733613 1.7639211,0.5779986 -0.33871213 1.7210292,0.4663356 -0.31907916 1.7300967,-0.018830992 -0.61518335 1.5914619,-0.01642703 -0.5448572 1.4896855,0.22502975 -0.437151 1.4729434,0.43985277 -0.38944972 1.4931719,0.52937263 -0.42675376 1.5036824,0.6267607 -0.44186905 1.4871606,0.52618986 -0.43576935 1.4707923,0.04210733 -0.193705 1.8258421,0.06725535 0.18098263 1.7966844,-0.012280479 0.52897394 1.8431128,0.13658395 0.6104844 1.8906866,-0.036734145 -0.15007885 1.689832,-0.02076029 0.22318895 1.7343767,-0.09548769 0.57232267 1.8039584,0.008148566 0.6842904 1.8589271,-0.009191992 -0.7298748 1.5932102,0.1267604 -0.7920002 1.5705216,0.093686394 -0.81763124 1.6024977,0.00282006 -0.7863291 1.6731379,0.0889045 -0.8174574 1.553539,-0.027605198 -0.7947809 1.52026
0.0002064963 -0.1701991 1.756269,0.00209538 -0.3295843 1.7040265,0.002701338 -0.45716542 1.6627305,-0.0125656985 -0.6550618 1.6150751,-0.00551238 -0.6303117 1.6533042,0.04805622 -0.6375607 1.7763602,0.23964795 -0.4937434 1.8769382,0.43432525 -0.42442828 1.8072921,0.50287485 -0.3847222 1.7634615,0.5806446 -0.33733287 1.7184339,0.467079 -0.31707186 1.728734,-0.016493766 -0.614379 1.5930626,-0.014355936 -0.54509664 1.4906703,0.2266149 -0.4368931 1.473056,0.44119692 -0.3890091 1.4937359,0.53070086 -0.42680174 1.5017023,0.62731236 -0.44349903 1.4827422,0.5259949 -0.4360472 1.4682137,0.0414345 -0.1931695 1.8278394,0.06926708 0.18119368 1.8003671,-0.009970501 0.5293778 1.8438356,0.1351216 0.61093974 1.9014618,-0.036970608 -0.14948568 1.6917309,-0.021123504 0.22352925 1.7362409,-0.0948254 0.57270956 1.8053653,0.008198753 0.6850344 1.860425,-0.0058537615 -0.7288983 1.5950291,0.12910666 -0.792632 1.5715884,0.09604484 -0.8176826 1.6039745,0.0061987117 -0.784967 1.6751378,0.090852946 -0.81774724 1.5550915,-0.025594711 -0.79398304 1.5226814
-0.015021438 -0.16010216 1.766201,-0.0067698406 -0.31891653 1.7105105,0.0021788087 -0.44529423 1.6647474,-0.0015272372 -0.6431035 1.6108724,0.007685996 -0.6188984 1.6492424,0.07243329 -0.6292293 1.7672665,0.25815183 -0.4990992 1.8964695,0.42439103 -0.44355094 1.7650756,0.49620208 -0.38844132 1.7562933,0.5792646 -0.339921 1.7222152,0.46539578 -0.3217439 1.7310473,-0.011375524 -0.60209 1.5909851,-0.037443474 -0.5359442 1.4891392,0.12832418 -0.36189443 1.3753489,0.34675342 -0.37877405 1.4101589,0.42681453 -0.4308149 1.4318566,0.52355176 -0.44615638 1.453513,0.45988292 -0.40505084 1.4468272,0.028108573 -0.18276241 1.8372126,0.08786962 0.18719706 1.787014,-0.014451324 0.5316106 1.8255223,0.13298166 0.6079954 1.8866366,-0.053913668 -0.1396684 1.7021668,-0.01611517 0.23529947 1.7271501,-0.10376866 0.581409 1.8036999,0.010679536 0.69231737 1.8368874,0.0091755185 -0.71573263 1.5871524,0.14416474 -0.7847525 1.5803101,0.1080875 -0.8055492 1.6128755,0.014100075 -0.76326376 1.6738176,0.10626678 -0.81081444 1.5638106,-0.007458791 -0.7881572 1.5206146
-0.02398655 -0.15108775 1.7872136,-0.010615234 -0.31252968 1.7319343,0.003326457 -0.44080132 1.6863593,0.0044908924 -0.64057124 1.6273855,0.010000728 -0.61682296 1.667599,0.06981505 -0.6309413 1.7902106,0.2739464 -0.4866023 1.8784738,0.46042317 -0.44306612 1.7651218,0.51943094 -0.3731364 1.7523527,0.594618 -0.31114507 1.7169769,0.46585393 -0.31035584 1.7258508,-0.003352452 -0.5984606 1.6071565,-0.01410632 -0.5279733 1.503061,0.22537744 -0.4060928 1.475289,0.44789946 -0.37401077 1.490584,0.5375407 -0.4147942 1.5045902,0.6380953 -0.43021715 1.5104773,0.5465273 -0.45210466 1.4857872,0.013693886 -0.17385243 1.8628117,0.10118301 0.19672199 1.8123496,-0.018892579 0.5435163 1.8199689,0.120345645 0.61645955 1.9071337,-0.057964653 -0.13055983 1.7190434,-0.0022579618 0.24903741 1.7224355,-0.107636526 0.5945317 1.8068231,0.016435169 0.7014012 1.8298833,0.017509457 -0.7138956 1.6029663,0.15504399 -0.7832219 1.5961679,0.11668086 -0.8076848 1.6246922,0.017763384 -0.77138054 1.6854436,0.11762705 -0.80763745 1.574539,0.004646376 -0.7797265 1.5270201
-0.03186972 -0.14367601 1.7951542,-0.014352536 -0.30396014 1.7362071,0.0037226286 -0.43095666 1.6874036,0.011235117 -0.63130903 1.6286818,0.015671488 -0.60726964 1.6690185,0.073483676 -0.623457 1.7927864,0.26961955 -0.47522643 1.8941319,0.45813984 -0.4177818 1.7893806,0.52528685 -0.37168247 1.7451978,0.60009533 -0.30590126 1.715398,0.4626483 -0.29783848 1.7161808,0.0023621158 -0.5893526 1.6082283,-0.008159047 -0.5232129 1.5008521,0.23578088 -0.4083482 1.4741544,0.4569311 -0.36636704 1.4944491,0.54672974 -0.40792015 1.5072359,0.6475189 -0.42343205 1.5140588,0.55791324 -0.43926615 1.4835976,0.0059246346 -0.16733678 1.8707219,0.1113654 0.19490717 1.7928337,-0.02306991 0.537614 1.7977661,0.116031855 0.6170546 1.8804585,-0.06595056 -0.12234006 1.7270116,0.008149333 0.25512785 1.7163826,-0.10650716 0.5968462 1.8085475,0.019700602 0.70422053 1.8157521,0.02664312 -0.70448923 1.6044725,0.16279303 -0.7774425 1.597351,0.124203295 -0.8003267 1.6271526,0.026840053 -0.76003844 1.6886243,0.12436521 -0.8015655 1.5768566,0.0110042095 -0.7720819 1.5302109
-0.03772215 -0.1332534 1.799044,-0.019239891 -0.29150742 1.7374877,0.0015640091 -0.416141 1.6857176,0.012499491 -0.61553764 1.6280411,0.01604047 -0.59144175 1.6681538,0.06449241 -0.6031208 1.7956204,0.27020633 -0.46381453 1.8865832,0.46532094 -0.40269732 1.799953,0.5325044 -0.37360716 1.7439221,0.60029566 -0.30232948 1.7118877,0.46187866 -0.29325497 1.7123106,0.0033972235 -0.57397705 1.607438,-0.007545445 -0.5107588 1.499101,0.23987742 -0.40629047 1.4758507,0.45919597 -0.35985917 1.4934456,0.54898155 -0.3990788 1.5093783,0.6492848 -0.41572043 1.5109574,0.56001484 -0.42190704 1.4802971,0.0013554245 -0.15754646 1.8732316,0.1148142 0.19072616 1.7603588,-0.030998357 0.5263336 1.7771899,0.111934274 0.60179096 1.8549495,-0.07296012 -0.11134727 1.7321458,0.011345051 0.26121396 1.7060357,-0.10629478 0.5979789 1.8048538,0.016952202 0.70750433 1.7980553,0.029129243 -0.6882086 1.6044011,0.16580257 -0.7543444 1.5796059,0.13212153 -0.7795616 1.6127931,0.04141488 -0.7454512 1.685869,0.12650904 -0.77955544 1.5630519,0.0079436 -0.75426275 1.5308354
-0.038801186 -0.10455506 1.7974252,-0.019657092 -0.26227623 1.7371905,0.004128607 -0.38502237 1.6840912,0.021203352 -0.58327234 1.6278794,0.025046572 -0.5588277 1.6674633,0.074672714 -0.574117 1.7933195,0.28859735 -0.44664 1.8784907,0.48015743 -0.38115576 1.7901062,0.5483564 -0.38103586 1.7287912,0.6033668 -0.2961633 1.7097865,0.45633718 -0.28265548 1.704873,0.009807071 -0.5425125 1.607384,-0.00033945774 -0.48308918 1.4975948,0.25036868 -0.38902467 1.4830582,0.466793 -0.33485872 1.4993382,0.5566518 -0.36921307 1.5216057,0.6560564 -0.3879455 1.5219142,0.5649784 -0.4004015 1.5002873,0.009593584 -0.12507991 1.8665494,0.13824019 0.19625513 1.7066498,-0.029379874 0.5147449 1.7636118,0.11989035 0.5940088 1.8207961,-0.082440875 -0.086046904 1.7350928,0.028413534 0.2758832 1.6929119,-0.09740682 0.6030453 1.8056915,0.01640831 0.71935904 1.7841296,0.039902225 -0.65503913 1.6043736,0.17954959 -0.7162138 1.5910451,0.14463866 -0.7418768 1.6220996,0.048195682 -0.7099046 1.6873232,0.14268295 -0.7430392 1.5723565,0.02657006 -0.7228933 1.5313305
-0.044127572 -0.08614888 1.798627,-0.023444371 -0.24210632 1.739495,0.00022515468 -0.36412674 1.6884644,0.025199704 -0.5598526 1.6346262,0.025721537 -0.5355681 1.6738961,0.06335521 -0.5511208 1.8022617,0.27226794 -0.43179062 1.9016998,0.46328145 -0.37556294 1.8117352,0.53181815 -0.3761539 1.7523102,0.5941787 -0.30562255 1.7136005,0.45757085 -0.28699166 1.7091987,0.014511084 -0.5198039 1.6135218,0.013293866 -0.4614634 1.5042341,0.25873715 -0.362059 1.4888366,0.47152644 -0.30449566 1.5079379,0.55717355 -0.34670204 1.5285108,0.65355915 -0.37354526 1.5277843,0.56360567 -0.37139872 1.5023681,0.0006373003 -0.10687488 1.8689487,0.15523645 0.19810927 1.7098328,-0.017492726 0.5115398 1.7526684,0.12477996 0.59179014 1.8194904,-0.084494025 -0.06745933 1.735215,0.038762607 0.2855801 1.6893992,-0.09198467 0.60431683 1.8075877,0.014450178 0.72489786 1.7852836,0.04680814 -0.63043964 1.6128902,0.18393072 -0.694338 1.6074245,0.14680517 -0.7194365 1.6352115,0.048173077 -0.68664783 1.6940275,0.14810976 -0.71948403 1.5859745,0.036744274 -0.6956224 1.5384012
-0.04949025 -0.07309046 1.8042046,-0.024147242 -0.22787017 1.7444049,0.0036880802 -0.34839183 1.692376,0.032085888 -0.5433349 1.638386,0.032238822 -0.51910955 1.6776263,0.067978576 -0.54080045 1.8054614,0.27960113 -0.42436084 1.9016743,0.46792573 -0.36200657 1.8107605,0.53835005 -0.38134655 1.7571477,0.58112955 -0.3021081 1.7099599,0.4438784 -0.2793186 1.7198085,0.020644682 -0.5035203 1.617364,0.017481854 -0.44999117 1.5058546,0.26355326 -0.3527609 1.4925767,0.47576433 -0.29382524 1.5106267,0.558866 -0.3377218 1.5367594,0.65416926 -0.36742994 1.5412809,0.5665483 -0.36343995 1.5202669,-0.002723172 -0.09221901 1.8735349,0.16729231 0.19173373 1.6937109,-0.015018806 0.49782026 1.7452002,0.123362936 0.5879313 1.8068268,-0.09166218 -0.055841394 1.7416863,0.047015756 0.28920832 1.6844581,-0.08819568 0.6044922 1.8054206,0.017099686 0.72570884 1.7826662,0.054906353 -0.61340845 1.6165749,0.19562861 -0.6675308 1.6053932,0.16041307 -0.6972889 1.6308408,0.060385823 -0.67627835 1.6923177,0.1614024 -0.6929083 1.5818548,0.04857818 -0.6721941 1.536715
-0.046223745 -0.032115016 1.8138249,-0.0263672 -0.18442844 1.7589426,0.009398678 -0.29642385 1.702532,0.04480254 -0.47962275 1.6348197,0.042810615 -0.45955974 1.6748416,0.10106984 -0.47503552 1.7908092,0.31937265 -0.34990317 1.8136096,0.40874445 -0.29199493 1.6302341,0.49593315 -0.30419406 1.6305689,0.59471655 -0.30548295 1.6304246,0.4599095 -0.25062105 1.5195941,0.03324494 -0.43959832 1.6174332,0.051484793 -0.36847013 1.5222224,0.2841186 -0.26121354 1.4967315,0.49454543 -0.23193064 1.5279715,0.5819547 -0.2664376 1.5404053,0.6743477 -0.29312715 1.526961,0.5809778 -0.300185 1.5182692,0.003101304 -0.049113944 1.8788475,0.18271644 0.19800733 1.6772571,-0.005677402 0.48892504 1.7245321,0.14663851 0.56587124 1.7392331,-0.09070231 -0.016786335 1.7551914,0.056482345 0.3081527 1.6749892,-0.07524207 0.6106489 1.8018472,0.01999174 0.7336926 1.7768596,0.069856964 -0.54492694 1.6086388,0.20717135 -0.59656644 1.6007608,0.17459244 -0.6214924 1.6313568,0.0794186 -0.59290355 1.6910106,0.173572 -0.6251633 1.583707,0.061870836 -0.614199 1.5418471
-0.049692094 -0.0032811249 1.8211805,-0.027826102 -0.15418914 1.762503,0.003483547 -0.26846024 1.707523,0.046502158 -0.45061105 1.6404263,0.042916607 -0.43064705 1.6804701,0.06773806 -0.47221458 1.802105,0.29154214 -0.35622197 1.7796502,0.3414479 -0.28993008 1.5841205,0.41002607 -0.24347733 1.5538584,0.5007268 -0.21032943 1.5322496,0.37645754 -0.20426059 1.4853274,0.034029018 -0.41089547 1.622771,0.05224137 -0.34385833 1.5243865,0.29255533 -0.2532313 1.5013866,0.5038712 -0.2178913 1.5204446,0.5915337 -0.24554604 1.5442384,0.68699414 -0.26417777 1.5431763,0.59675044 -0.27873465 1.5226203,-0.002379883 -0.022154283 1.8873496,0.17023122 0.18000032 1.634853,0.0040156096 0.47970605 1.7077696,0.14962973 0.5670149 1.7324358,-0.092355594 0.013737631 1.7615126,0.07676493 0.32118118 1.6566168,-0.06786685 0.61309546 1.795297,0.010297507 0.7479349 1.7702966,0.07432935 -0.5151316 1.6147527,0.21165043 -0.56376594 1.5939327,0.18123873 -0.59186316 1.624152,0.089496024 -0.5701455 1.691904,0.1773019 -0.5913163 1.5764357,0.0629254 -0.5784421 1.5425289
-0.049297053 0.054831326 1.8378727,-0.03220675 -0.09999831 1.7865546,0.0073584802 -0.20959723 1.7264407,0.05430662 -0.389365 1.6535558,0.05168555 -0.37025154 1.6942754,0.09971145 -0.3988533 1.8132085,0.3224728 -0.27711642 1.8035944,0.3615293 -0.23036942 1.5992656,0.4363814 -0.23031828 1.5520103,0.52983034 -0.22716063 1.5184793,0.37173325 -0.20000556 1.4833102,0.039594423 -0.3496613 1.6372044,0.060897913 -0.28057772 1.5403056,0.2987007 -0.18187222 1.5137174,0.5109142 -0.14842293 1.5352981,0.59861034 -0.18101054 1.5535134,0.6896552 -0.2149947 1.5440803,0.59538704 -0.22074294 1.5448366,0.0047253817 0.04011862 1.9002527,0.20040789 0.18469566 1.624126,0.03371027 0.48938903 1.6796018,0.12815787 0.62332386 1.626685,-0.09801146 0.068098426 1.7816219,0.10029561 0.3435279 1.6403362,-0.056486838 0.62608254 1.7883301,0.018722486 0.7632477 1.7631203,0.08347249 -0.45253134 1.6252997,0.2241653 -0.4959819 1.6135317,0.19329178 -0.5242954 1.6434102,0.09689158 -0.5039372 1.7056515,0.19186144 -0.5258063 1.5953916,0.07856982 -0.5193295 1.5550158
-0.058633868 0.09593141 1.8521882,-0.037344716 -0.057357565 1.7927132,0.0030767806 -0.16764966 1.7313131,0.057384595 -0.348729 1.6608312,0.053425916 -0.3289839 1.701688,0.09948431 -0.35805646 1.8228574,0.33516958 -0.25606444 1.8238497,0.4163377 -0.18876997 1.635856,0.45949095 -0.2136817 1.5615255,0.52662855 -0.24988797 1.4962175,0.38051304 -0.20322877 1.5058547,0.0415726 -0.30928308 1.643528,0.05882109 -0.24435246 1.5414354,0.30935186 -0.17038593 1.5261643,0.5222726 -0.12425134 1.5395219,0.60858184 -0.16125362 1.5610912,0.7043413 -0.18514006 1.5597484,0.61407214 -0.19435425 1.5428045,-0.009448305 0.07701622 1.9185456,0.21229741 0.1941438 1.6437333,0.046400458 0.5071567 1.6740488,0.14673072 0.6407204 1.6250138,-0.10298665 0.11298808 1.7923509,0.121007964 0.362014 1.6313335,-0.0504546 0.6329427 1.793475,0.019820344 0.77288604 1.7597942,0.089313224 -0.41199258 1.6336089,0.22971575 -0.45898008 1.6141413,0.1993218 -0.48737738 1.6453735,0.10552991 -0.46561262 1.7132617,0.19550492 -0.48805714 1.5969404,0.07933396 -0.47818685 1.5618358
-0.06464219 0.113791235 1.8546449,-0.04506958 -0.036868684 1.7922795,-0.0011027046 -0.14340377 1.7293912,0.058044344 -0.31887323 1.6542038,0.053157985 -0.30081612 1.6952631,0.09533064 -0.32421562 1.8176988,0.32881021 -0.22843531 1.8496948,0.476077 -0.16099277 1.710596,0.48978734 -0.21566749 1.6421862,0.5097846 -0.22658016 1.5453625,0.42370698 -0.18152063 1.5863863,0.041592125 -0.27964056 1.6382064,0.065564185 -0.20873314 1.5430595,0.31483126 -0.13812195 1.5351877,0.5258409 -0.091954574 1.5446421,0.6095155 -0.12802622 1.5730402,0.7031718 -0.15580136 1.5770425,0.6127522 -0.16102299 1.5504059,-0.021898683 0.09097267 1.9231836,0.26111272 0.26157296 1.760063,0.14180799 0.5747938 1.8682247,0.24474172 0.70741093 1.8287657,-0.10318589 0.13436773 1.7928406,0.12266128 0.37598467 1.6311917,-0.04271631 0.64398146 1.7969967,0.006426029 0.7874498 1.7503453,0.091566026 -0.37976745 1.6255234,0.22143632 -0.44955754 1.613554,0.18637839 -0.47040984 1.645032,0.09677854 -0.42981339 1.7078186,0.18365707 -0.4734197 1.5970746,0.07262889 -0.44710082 1.5580025
-0.09189901 0.16467597 1.8745942,-0.064581454 0.016321123 1.8119364,-0.010446303 -0.08712092 1.75344,0.06125258 -0.2582808 1.6821951,0.05333747 -0.24062446 1.7226864,0.108634606 -0.25333428 1.8406328,0.34090936 -0.15533337 1.862078,0.48586756 -0.09083136 1.7209336,0.5078016 -0.08264329 1.6359353,0.5389772 -0.09939677 1.5435503,0.48466784 -0.054892376 1.5947231,0.043720815 -0.22016034 1.6653699,0.068027295 -0.1540211 1.5677332,0.31419778 -0.07897232 1.5526167,0.52409345 -0.033493094 1.5635477,0.6111567 -0.06668882 1.581694,0.7044464 -0.09298761 1.5738347,0.6117165 -0.106987305 1.5688056,-0.060961753 0.13941064 1.9479029,0.25562784 0.31524062 2.0045173,0.12388846 0.6245705 2.1028435,0.24065836 0.7499174 2.1114073,-0.119796485 0.18745881 1.8084886,0.12444115 0.3943448 1.6307038,-0.044424444 0.65771216 1.7963107,0.0057224445 0.80101943 1.7532693,0.09915908 -0.31700096 1.6555735,0.23798105 -0.36554384 1.6514052,0.20541507 -0.3905048 1.6821079,0.10839399 -0.36269185 1.7394273,0.20533776 -0.39541358 1.6344904,0.094018504 -0.3882189 1.5903692
-0.10469336 0.19045156 1.879276,-0.07318025 0.043205425 1.8152863,-0.013540088 -0.057835728 1.7574717,0.060784295 -0.22636616 1.68187,0.053601906 -0.20938016 1.7228633,0.11619195 -0.22294973 1.8372546,0.35019714 -0.13259652 1.8733667,0.51010615 -0.064014085 1.7510188,0.5352159 -0.05218421 1.6671858,0.5811003 -0.058177836 1.5795587,0.49753433 -0.049882293 1.6198428,0.04167614 -0.18849573 1.6660254,0.06248056 -0.12306618 1.566869,0.31313482 -0.06120885 1.5618217,0.5237367 -0.016374882 1.5675576,0.61147994 -0.046550866 1.588329,0.7066453 -0.066943124 1.5844333,0.6162128 -0.08617899 1.5784585,-0.077453986 0.1639164 1.9537505,0.25639606 0.30593866 2.010019,0.111933224 0.60638785 2.119439,0.23186651 0.72643924 2.1462874,-0.1292563 0.21437949 1.8121191,0.13000265 0.39911574 1.6300213,-0.044403687 0.6581702 1.7979171,0.026822299 0.7929333 1.756061,0.09953622 -0.28378665 1.6533525,0.24008015 -0.32804272 1.651045,0.21076693 -0.34521797 1.6895239,0.11646084 -0.3062513 1.7452413,0.20773134 -0.36218333 1.6447799,0.09331491 -0.36957937 1.6088365
-0.12152679 0.23461026 1.8886368,-0.09437957 0.086823165 1.8245153,-0.027440123 -0.011377767 1.7703526,0.049676485 -0.1802583 1.699242,0.040704954 -0.16304725 1.7397125,0.104418695 -0.16981867 1.8538642,0.33706963 -0.07276109 1.8759668,0.4876626 -0.013059266 1.738612,0.52112055 -0.0042012297 1.6575115,0.5797216 -0.00663988 1.5778211,0.4776261 0.0047743097 1.6067618,0.03142948 -0.14249095 1.6823626,0.063359946 -0.07059546 1.5911812,0.30822077 0.007113308 1.569146,0.5209184 0.0328607 1.5879855,0.6060274 -0.0052574053 1.6058035,0.7000417 -0.029770054 1.6013659,0.6114958 -0.03537167 1.5881542,-0.1035773 0.20495035 1.9645963,0.24457662 0.31042778 2.0099254,0.086055174 0.6053334 2.1131117,0.21481174 0.712925 2.148821,-0.13771264 0.2613559 1.8201408,0.13757701 0.40847582 1.6286377,-0.045865893 0.65722966 1.8012993,0.032775782 0.78646 1.7562788,0.08947058 -0.23784502 1.6728683,0.23336735 -0.2626682 1.6547176,0.20903157 -0.29093552 1.6898713,0.11528951 -0.2765069 1.756808,0.20475072 -0.29849225 1.6427884,0.08979798 -0.31252712 1.6114244
-0.12879728 0.25009727 1.8927284,-0.09850904 0.10074569 1.8318794,-0.027811855 0.0026993454 1.7809112,0.05031602 -0.1711977 1.721496,0.04148722 -0.15103449 1.7608393,0.10733664 -0.15209773 1.8746389,0.34262204 -0.056019038 1.8780806,0.500324 0.0012908615 1.7463461,0.51568675 0.027562689 1.6631725,0.5587779 0.051090475 1.5767614,0.48095348 0.016715085 1.6157051,0.03159118 -0.13473085 1.7019539,0.061693914 -0.0693526 1.6047403,0.30499735 0.014587544 1.5759791,0.51749015 0.04950097 1.5931728,0.6054997 0.019320227 1.614084,0.7020867 0.004694947 1.6138381,0.61283475 -0.02076196 1.6003218,-0.11204459 0.22202827 1.9699615,0.24133338 0.31549105 2.0143466,0.07800071 0.61259407 2.108606,0.20701914 0.71979135 2.1480136,-0.14390391 0.27540833 1.823084,0.13780564 0.4081869 1.6273823,-0.048478846 0.65685457 1.8003392,0.033104222 0.78558946 1.7567049,0.09049781 -0.23056255 1.6989981,0.2350847 -0.22050995 1.6700631,0.21890016 -0.26293042 1.69433,0.12971044 -0.28915855 1.7647066,0.21194567 -0.25534385 1.6473554,0.09829323 -0.27985686 1.6156615
-0.14275792 0.27361837 1.8909184,-0.10991156 0.12440956 1.8304051,-0.03443312 0.028134331 1.7825203,0.046512075 -0.14627771 1.727581,0.036186036 -0.12573999 1.7664381,0.092604965 -0.12424229 1.8854022,0.32893825 -0.030420981 1.8969687,0.5022062 0.019574583 1.7824304,0.5458041 0.029497383 1.7058302,0.55518836 0.044293277 1.6078559,0.5667592 0.019419892 1.675776,0.028349001 -0.11002146 1.7069919,0.05835034 -0.046238817 1.6084774,0.30514205 0.030727789 1.5876378,0.51774764 0.068018675 1.6021777,0.60460603 0.033328496 1.6214759,0.70009196 0.012287345 1.6182504,0.60815537 -0.010439441 1.6158848,-0.1300776 0.24482763 1.9687912,0.21962425 0.34974533 2.0205176,0.045526788 0.64255136 2.1107762,0.16886054 0.7559287 2.1521342,-0.15419233 0.29958028 1.8206971,0.14057472 0.4155895 1.6327174,-0.052377507 0.66042405 1.8048918,0.006777417 0.79654646 1.7485296,0.08774626 -0.20578751 1.7070963,0.23058784 -0.19054228 1.6714466,0.21705091 -0.23359054 1.6963785,0.13209873 -0.26307058 1.7708708,0.20763975 -0.22621724 1.6497277,0.09341604 -0.25479168 1.6232542
-0.16201067 0.30912694 1.8934823,-0.12675148 0.15902945 1.8368518,-0.043249436 0.066805795 1.7948352,0.043037385 -0.10510121 1.7404639,0.029950656 -0.085807994 1.7791026,0.08208235 -0.08561129 1.8999507,0.3185867 0.007761359 1.9087833,0.49004188 0.06126099 1.7932851,0.5290781 0.06945129 1.7141095,0.57605135 0.056993287 1.6273037,0.5653685 0.0542329 1.6885245,0.025876448 -0.06844682 1.7197659,0.06635603 -0.0015792026 1.6272985,0.30785275 0.08743195 1.5963216,0.5215918 0.11078718 1.6193609,0.6086062 0.07353183 1.631708,0.6933482 0.029510554 1.6527538,0.6020609 0.020224709 1.6410081,-0.15281282 0.28157112 1.972245,0.19787751 0.3677259 2.0460343,0.008036793 0.6554461 2.118538,0.13760094 0.75794035 2.1681075,-0.17030478 0.33397523 1.8224586,0.13940743 0.4125493 1.6395288,-0.051805586 0.66326344 1.8047056,0.032892395 0.78760356 1.7542256,0.08617212 -0.16358018 1.7210792,0.22931564 -0.14392975 1.6892843,0.21625558 -0.18801664 1.7125517,0.1304025 -0.22175203 1.7840629,0.20773618 -0.17941721 1.665962,0.09491036 -0.20978165 1.6359702
-0.16128093 0.32270202 1.9035876,-0.13277784 0.170753 1.8493497,-0.05064895 0.080057316 1.8026068,0.03700476 -0.09018131 1.7470485,0.024762362 -0.07087889 1.7858255,0.07813588 -0.07072311 1.9057648,0.3161522 0.016783826 1.9154265,0.48965386 0.071225554 1.8045168,0.5309907 0.08327346 1.7272773,0.56114715 0.06408244 1.634708,0.55794674 0.0716923 1.6970167,0.018568963 -0.054118074 1.7266637,0.05568694 0.01122085 1.6321181,0.29993224 0.091328226 1.6040201,0.5123392 0.124394014 1.6217264,0.5974131 0.08362145 1.634601,0.6881131 0.050506826 1.6484015,0.6031397 0.046237633 1.62743,-0.14403692 0.29804367 1.9817307,0.21966968 0.2819807 2.032935,0.039988697 0.5805893 2.07763,0.16472267 0.6909659 2.1207192,-0.17683062 0.34493753 1.8331225,0.13191237 0.40295827 1.6429045,-0.051669106 0.6615976 1.8024805,0.032151684 0.7873838 1.7555056,0.08053365 -0.14783928 1.7268428,0.22266227 -0.124162465 1.6949835,0.21078013 -0.16895261 1.7172272,0.12629871 -0.20623538 1.7881249,0.20186168 -0.15951347 1.6710023,0.08992083 -0.19174598 1.6408741
-0.15897143 0.3378727 1.9135278,-0.13277069 0.1810545 1.8669869,-0.052036554 0.088364325 1.8176824,0.037947662 -0.08328346 1.7621647,0.027894137 -0.062430933 1.801352,0.09368368 -0.053998463 1.9163357,0.3328887 0.038229413 1.9053153,0.49239635 0.08915868 1.7698592,0.543818 0.09337916 1.6968309,0.59922475 0.09147751 1.6132007,0.5710268 0.081149265 1.6703517,0.01657296 -0.048365273 1.7415271,0.044486903 0.014772914 1.640794,0.29164273 0.093008526 1.6068133,0.5068924 0.12557505 1.6199894,0.593698 0.091346 1.6436988,0.6871458 0.05998934 1.6403689,0.5957036 0.059301026 1.6298364,-0.13281964 0.3190073 1.9918165,0.23266016 0.26717648 2.0357578,0.056791782 0.5723972 2.0818925,0.1778783 0.671847 2.1574545,-0.18255365 0.35488445 1.8429315,0.13184968 0.3903114 1.6485327,-0.051594377 0.6563766 1.8048811,0.031402886 0.7846331 1.7571504,0.08226664 -0.14104897 1.7408898,0.22389835 -0.11201407 1.703987,0.21359363 -0.15924184 1.7230846,0.13229638 -0.20432243 1.7953061,0.20216464 -0.145936 1.6778142,0.08804733 -0.17776838 1.6501391
-0.16195112 0.34723517 1.916594,-0.13629171 0.19026798 1.8711663,-0.056221627 0.097159296 1.8221109,0.03701397 -0.0721495 1.765897,0.026558992 -0.05171576 1.8051193,0.09173635 -0.047969326 1.9204655,0.32946312 0.04726936 1.9126438,0.48400584 0.10200702 1.7734903,0.5332018 0.101509996 1.6989901,0.5874791 0.08911626 1.6157004,0.56828356 0.090729356 1.676886,0.014987998 -0.037618242 1.7454494,0.0422242 0.025526725 1.6447608,0.29242292 0.0953857 1.6188124,0.50681067 0.1327751 1.6266503,0.59382856 0.09629136 1.6450225,0.68798316 0.06835976 1.6378195,0.59742254 0.06323125 1.6323698,-0.13531454 0.32897806 1.9947237,0.22827171 0.26187813 2.0274935,0.059348732 0.5697459 2.0776455,0.17669043 0.6707562 2.1563687,-0.1859705 0.36369842 1.8461411,0.12561621 0.38658565 1.6464797,-0.05227545 0.65582234 1.8025575,0.031290244 0.7831068 1.7540417,0.08240337 -0.12883787 1.7443953,0.22555384 -0.10174635 1.7132432,0.21413596 -0.14808849 1.7336186,0.12940136 -0.18999587 1.8034685,0.20495437 -0.13654527 1.6874416,0.092299655 -0.16903362 1.6556573
-0.16100132 0.34955296 1.9192487,-0.13650599 0.19284935 1.8724341,-0.05781363 0.09922243 1.8222345,0.03611047 -0.06986625 1.7666812,0.025501825 -0.04937125 1.8058174,0.08980237 -0.04489159 1.9215921,0.32740387 0.050420076 1.9129134,0.48031676 0.106791034 1.7726953,0.53069186 0.10425195 1.6990554,0.5841421 0.0887085 1.615788,0.56301606 0.09471837 1.6760546,0.01401408 -0.03547406 1.7461002,0.04139126 0.027359761 1.6452907,0.2913413 0.09762685 1.6186866,0.50585985 0.13319376 1.6294351,0.5935465 0.09837598 1.6477395,0.68783295 0.071097046 1.6400964,0.59804577 0.06556042 1.6390579,-0.1340031 0.33053067 1.997049,0.23005846 0.26470983 2.0258915,0.058553576 0.57133603 2.0742528,0.17674127 0.6712503 2.1530175,-0.18534681 0.3667062 1.8490927,0.12535405 0.38756925 1.6479995,-0.052885056 0.6561935 1.8045378,0.030747667 0.7821156 1.7528147,0.08173269 -0.1264385 1.7454319,0.22506426 -0.102053106 1.7130711,0.21326694 -0.1472699 1.735612,0.12821823 -0.18510337 1.807333,0.20417628 -0.13785435 1.6889489,0.091276556 -0.17086504 1.6587216
-0.1624216 0.35124442 1.9235264,-0.1375946 0.19370162 1.8759217,-0.058446996 0.09964059 1.8249967,0.03538291 -0.070709646 1.7684203,0.024851482 -0.05015801 1.8078884,0.089166895 -0.043986734 1.9245571,0.32876712 0.05114464 1.9219426,0.49132472 0.10699692 1.7905039,0.53657985 0.11100455 1.7130044,0.5879706 0.08994734 1.6288754,0.5539681 0.10000491 1.6816738,0.013226546 -0.035958283 1.7478472,0.040562153 0.027728572 1.6466068,0.29104027 0.10111159 1.6169527,0.5071652 0.13495155 1.629536,0.5945936 0.09990011 1.6515301,0.6894263 0.071496606 1.647265,0.5983581 0.06723581 1.6387404,-0.13506605 0.33192652 2.0017235,0.23182178 0.26756757 2.0289674,0.0551714 0.5734474 2.080306,0.17737265 0.67265326 2.1562746,-0.18708932 0.3686642 1.8530127,0.12339273 0.3844976 1.6467578,-0.052065626 0.65730536 1.8045181,0.03246414 0.78443944 1.7540327,0.081060275 -0.12774628 1.7467848,0.22714041 -0.10915579 1.7187041,0.21280974 -0.15380284 1.7416825,0.123495385 -0.18744224 1.8115321,0.20558046 -0.14478076 1.6942954,0.09184007 -0.17424537 1.6605909
-0.16254683 0.34891814 1.9286294,-0.13704881 0.19012332 1.8803365,-0.057230152 0.09513333 1.829073,0.037637398 -0.07672363 1.7722951,0.027472965 -0.05565787 1.8120614,0.09532833 -0.048996657 1.9280604,0.33537167 0.050799996 1.9194309,0.49473923 0.104236975 1.7801287,0.53701395 0.10534077 1.6999644,0.575618 0.08776465 1.6075264,0.5444307 0.09417993 1.6643345,0.014765464 -0.042005412 1.7515271,0.040442795 0.021268114 1.6482825,0.29019424 0.10287445 1.6135929,0.5080706 0.13658214 1.6299171,0.59571725 0.10070283 1.6534598,0.6897059 0.066891834 1.649353,0.59618723 0.06654682 1.6397532,-0.1351883 0.32930192 2.0075758,0.23545699 0.26434195 2.0273213,0.055010244 0.5712038 2.0817134,0.17854379 0.6724857 2.1563747,-0.18721722 0.36660695 1.85744,0.123346314 0.3815551 1.6452869,-0.052739337 0.6572981 1.8046174,0.033091746 0.78528655 1.7539035,0.083747394 -0.13420558 1.7503557,0.22974506 -0.11338759 1.716784,0.21642163 -0.15953366 1.7384304,0.12946638 -0.19717327 1.8109566,0.20709403 -0.14826246 1.6914438,0.09110936 -0.1769791 1.6609255
-0.1584067 0.3496157 1.9274226,-0.13393982 0.1901871 1.879857,-0.055622242 0.09514067 1.8259493,0.03765016 -0.07755121 1.7680241,0.027617794 -0.05663672 1.8079797,0.0954541 -0.04608769 1.9239241,0.33752394 0.049978286 1.9193153,0.5007108 0.10019835 1.7827774,0.54108196 0.09753927 1.7015294,0.5744005 0.09007396 1.6055728,0.56284523 0.08951078 1.6721214,0.015159745 -0.04239081 1.7474358,0.042549808 0.020699069 1.6443074,0.29307404 0.10258557 1.61314,0.51083004 0.13839059 1.6308209,0.597473 0.098257124 1.6516294,0.68881905 0.057915065 1.6444981,0.5947233 0.06181439 1.6423904,-0.12717023 0.33116361 2.0053368,0.24315524 0.26089388 2.023057,0.069516584 0.57427716 2.0642195,0.19960451 0.6916163 2.0863602,-0.18657401 0.36625475 1.8571639,0.12614748 0.37747592 1.6470073,-0.051034853 0.65507734 1.8030467,0.03175765 0.7861744 1.7545288,0.08325215 -0.13544503 1.7457243,0.22982374 -0.115479305 1.7131792,0.21616293 -0.16129936 1.7354809,0.12829994 -0.19760098 1.807875,0.20730153 -0.15076452 1.6881609,0.091381766 -0.1797592 1.6569556
-0.16423813 0.34551772 1.9253633,-0.13618249 0.18765905 1.8749392,-0.0553784 0.09495933 1.8207906,0.0401797 -0.075662374 1.7608684,0.029905437 -0.05535143 1.8010453,0.098190375 -0.04650703 1.9167869,0.33998066 0.049993977 1.9154407,0.498259 0.097285315 1.7724156,0.5347283 0.084803745 1.6902955,0.5738098 0.059911326 1.5996552,0.5716573 0.06568125 1.6668497,0.017190982 -0.040608108 1.7407088,0.043395013 0.02425512 1.638454,0.29535204 0.102771744 1.6116519,0.5130612 0.1376755 1.6302394,0.60010105 0.09741653 1.6487867,0.6920264 0.059011076 1.6394744,0.59836817 0.062574446 1.6368687,-0.1344356 0.32585752 2.0034938,0.2380678 0.27005956 2.0227766,0.053801045 0.57432055 2.080991,0.1746095 0.6790041 2.1557953,-0.19111237 0.3632462 1.8549095,0.12211192 0.38034856 1.6462567,-0.05241026 0.6578671 1.8049741,0.033233758 0.7852804 1.7520741,0.08653594 -0.1326299 1.7378876,0.23452789 -0.13380621 1.7060431,0.21479803 -0.17632343 1.7302004,0.12260829 -0.19729792 1.8031719,0.20763426 -0.16686943 1.6823938,0.08908899 -0.18159005 1.6513095
-0.16371784 0.34555796 1.9250511,-0.13491875 0.18794593 1.8749508,-0.055583507 0.09377305 1.8215796,0.043804422 -0.07392026 1.7604735,0.0334149 -0.05397179 1.8007383,0.10070899 -0.04616308 1.916945,0.3420173 0.05059052 1.9121981,0.49939317 0.09895742 1.7689393,0.53254503 0.10313715 1.6847181,0.55690366 0.06450748 1.5938771,0.5738644 0.087122604 1.6595653,0.019697815 -0.039515436 1.7406328,0.043398295 0.025343535 1.637946,0.29524133 0.10279565 1.6101563,0.51290876 0.13751632 1.6262323,0.6003656 0.1005739 1.6486884,0.6951924 0.06930301 1.6444647,0.60158235 0.060168233 1.6450872,-0.1342249 0.32609463 2.0032346,0.23742925 0.26778728 2.02259,0.05407916 0.5722816 2.079781,0.17434844 0.6767839 2.1552033,-0.1903129 0.36310887 1.8545495,0.12191971 0.379539 1.6451774,-0.05201824 0.6564706 1.8045526,0.0323065 0.785039 1.7529442,0.09138508 -0.12951578 1.736952,0.23836145 -0.14629614 1.7056756,0.21466036 -0.18562423 1.7314712,0.12105415 -0.19454116 1.804872,0.20840839 -0.17751294 1.6833522,0.08911016 -0.18196204 1.6525733
-0.16386725 0.34035808 1.9227128,-0.13610518 0.18301578 1.8722785,-0.05678574 0.08987986 1.8177357,0.044933096 -0.07573023 1.7561189,0.033552714 -0.056576543 1.7963985,0.098307624 -0.048282415 1.9137051,0.33835202 0.05034575 1.9128513,0.4925442 0.10497609 1.769032,0.51924795 0.10499329 1.6826342,0.557928 0.06997882 1.5955987,0.55172396 0.10295108 1.6526043,0.021053575 -0.04123222 1.7363778,0.04656732 0.02545803 1.6356076,0.2981864 0.10246939 1.6095482,0.5153329 0.13691723 1.6272445,0.6049454 0.10337811 1.6452802,0.6951782 0.07314241 1.6751583,0.6058199 0.06278501 1.6306413,-0.1333964 0.32085645 2.000326,0.2377265 0.26465106 2.0216799,0.06381017 0.5756829 2.0676281,0.19288695 0.6920538 2.095007,-0.19134416 0.3579436 1.8527256,0.12208201 0.3798379 1.6469884,-0.052551642 0.65710044 1.8033787,0.03221849 0.7854957 1.7530806,0.09332439 -0.13047756 1.7327523,0.23896769 -0.15841153 1.704818,0.21232654 -0.19482675 1.7317847,0.117467575 -0.19422662 1.8037236,0.20734555 -0.18841723 1.6833599,0.08870967 -0.1861482 1.6507986
-0.1656138 0.3265768 1.923036,-0.13312279 0.16900885 1.869307,-0.05607613 0.0714329 1.815174,0.050984107 -0.08835932 1.7402742,0.039494954 -0.07212092 1.7824159,0.10509895 -0.06731709 1.9013476,0.3435619 0.04239572 1.9125514,0.4966945 0.093582004 1.7623659,0.5675179 0.08627999 1.7048155,0.63630205 0.101832874 1.6301118,0.574519 0.080834806 1.6712997,0.025464505 -0.05294303 1.7230104,0.044192083 0.026071735 1.6279365,0.2989648 0.1055439 1.6069951,0.5189274 0.13762654 1.6282402,0.60753596 0.09601392 1.6397991,0.7012405 0.058854286 1.6457374,0.60573626 0.05788094 1.6247116,-0.13667099 0.3056131 2.0020173,0.24009697 0.25724006 2.0259697,0.055844337 0.5647814 2.0874808,0.17859769 0.673397 2.1571789,-0.19171281 0.34548068 1.851815,0.12504889 0.37906224 1.6442327,-0.052586243 0.6570246 1.8063915,0.033134475 0.7860608 1.7529552,0.10126975 -0.14051265 1.7122929,0.25154358 -0.16551167 1.700777,0.22337496 -0.20000306 1.7299098,0.121040575 -0.19490847 1.7933805,0.22268605 -0.19962472 1.6802077,0.10614048 -0.2065019 1.6367706
-0.16207956 0.3198162 1.9174664,-0.13288905 0.16354874 1.8659711,-0.0568377 0.06754146 1.8126302,0.04253631 -0.09564213 1.7430067,0.030804861 -0.07878196 1.7840651,0.095090315 -0.07712873 1.9015076,0.33312994 0.024203584 1.9095283,0.49265924 0.08083899 1.7733774,0.53817695 0.07857678 1.6955463,0.5828627 0.08507216 1.6049693,0.55964744 0.07319781 1.6664495,0.019763608 -0.059624575 1.7250377,0.047050964 0.014133118 1.6302316,0.29447305 0.099999994 1.5991905,0.5119967 0.123812504 1.6218408,0.6000157 0.08602433 1.6378229,0.69097143 0.047562316 1.6258118,0.59565604 0.045657855 1.630974,-0.1330486 0.29962143 1.9952058,0.23894417 0.26302278 2.0249717,0.059459165 0.567271 2.0852902,0.17906417 0.6729097 2.1582627,-0.18825805 0.33802673 1.8473654,0.124987364 0.38001832 1.6463292,-0.051454857 0.65508616 1.8023485,0.03142748 0.7849533 1.7540938,0.090164386 -0.14970715 1.7172661,0.2343902 -0.18790415 1.6974475,0.20611753 -0.217487 1.7302196,0.11099869 -0.19979599 1.7990577,0.20183273 -0.22006255 1.681504,0.08398628 -0.21933247 1.6472703
-0.16808443 0.2822726 1.9187516,-0.13559279 0.12434985 1.8579501,-0.05822163 0.024857782 1.8023449,0.043653302 -0.13856909 1.7193753,0.03125664 -0.12423501 1.762758,0.0902462 -0.13041484 1.8874406,0.3294174 -0.012907259 1.9025466,0.4858964 0.04278917 1.7522274,0.5462771 0.03259573 1.6822261,0.60083634 0.044377953 1.5940417,0.5772778 0.02738163 1.6595086,0.020658143 -0.09996611 1.7033985,0.04497946 -0.011160858 1.6158988,0.30134395 0.07613256 1.5910547,0.5262857 0.08256554 1.6197248,0.6166443 0.03940066 1.6201825,0.70007336 0.018262088 1.6760051,0.60770375 -0.0010928623 1.6105269,-0.14360486 0.25631005 1.9992671,0.24146171 0.26768425 2.0325043,0.04034987 0.56990474 2.1015797,0.17607892 0.6752357 2.1583526,-0.19015872 0.3056842 1.8461472,0.13058609 0.37618434 1.642822,-0.056640595 0.65538466 1.8054138,0.034370244 0.78500485 1.75413,0.092595756 -0.19264352 1.6892847,0.24776849 -0.1916576 1.69215,0.22263788 -0.22247209 1.7287767,0.1136062 -0.2199809 1.7844384,0.2266736 -0.23532815 1.680109,0.115765356 -0.27518487 1.634011
-0.16948542 0.24504326 1.9133358,-0.13217723 0.09546739 1.8467686,-0.04824432 0.004544825 1.7947198,0.043255515 -0.15944025 1.7141472,0.032377206 -0.14456801 1.7564409,0.09679593 -0.15310903 1.874256,0.33240044 -0.04358536 1.8862853,0.48720986 0.011579648 1.7425984,0.5183596 0.022944346 1.6582502,0.55890226 0.011901593 1.5656351,0.5428707 0.015642133 1.6258541,0.022173543 -0.12109402 1.6985027,0.04951138 -0.038194783 1.6107445,0.29467967 0.05857528 1.5831472,0.5148676 0.056777764 1.6027232,0.6068647 0.025105944 1.6102223,0.70059603 -0.0047290437 1.6280406,0.6070101 -0.020931961 1.5937674,-0.15463206 0.21379557 1.9918737,0.20087582 0.33215234 2.0316586,-0.00414519 0.6062432 2.143528,0.12027206 0.7230659 2.1878371,-0.18287934 0.27322072 1.8425146,0.120427 0.37635893 1.6449311,-0.054051876 0.6531888 1.8041134,0.03319123 0.7812021 1.7559552,0.08832459 -0.21433264 1.6847056,0.23209867 -0.26021415 1.6748077,0.20111533 -0.2855298 1.7090786,0.103728145 -0.25746936 1.7720488,0.19865471 -0.29255942 1.6604354,0.08184738 -0.29032752 1.620959
-0.1705171 0.22772606 1.9074676,-0.136294 0.07368539 1.8457031,-0.055500306 -0.022002906 1.7940478,0.038544163 -0.18916608 1.718316,0.027075872 -0.17302468 1.7604508,0.09208895 -0.17246409 1.8796526,0.33045036 -0.06270016 1.8742194,0.48274547 -0.010756332 1.723755,0.49000058 0.0013122996 1.6333843,0.50833005 -0.018190179 1.534303,0.5270021 0.0021540653 1.5974025,0.017200958 -0.15105693 1.7012423,0.0433134 -0.07024068 1.6096464,0.28830338 0.030584097 1.5730472,0.51071596 0.029967934 1.5903741,0.6029711 -0.0020153336 1.6031805,0.7019691 -0.021358987 1.604652,0.61195666 -0.038342163 1.5928946,-0.15267122 0.19963159 1.9874234,0.2155393 0.28677678 2.0250385,0.04143347 0.5913635 2.1197648,0.17818639 0.6973672 2.1612878,-0.18660952 0.25306007 1.8353679,0.121707246 0.37339026 1.6489853,-0.055208817 0.6537837 1.8068849,0.033759482 0.7804196 1.7534996,0.08462004 -0.24510604 1.6906095,0.2308754 -0.28666353 1.6773015,0.19995353 -0.3165013 1.7086052,0.10048573 -0.2974774 1.7737436,0.19805433 -0.3183381 1.6590153,0.0804947 -0.31457543 1.6183634
-0.1668275 0.17636076 1.8996037,-0.12784113 0.02448769 1.8301772,-0.05307965 -0.07537746 1.7733325,0.039063387 -0.24311027 1.6901366,0.028303787 -0.2279531 1.7334268,0.08313064 -0.24308124 1.8585057,0.3217212 -0.12650579 1.8644983,0.46267593 -0.056270406 1.706708,0.47678676 -0.037217915 1.6172413,0.49263507 -0.026337758 1.515176,0.51247174 -0.016554907 1.5891386,0.017609268 -0.20382318 1.6743724,0.039253637 -0.119199656 1.5830014,0.29083002 -0.022366516 1.558947,0.5152269 -0.0083931815 1.5793437,0.60840166 -0.043294154 1.5849689,0.69804746 -0.08541109 1.6096991,0.614184 -0.08697912 1.574536,-0.14868042 0.14460957 1.9792511,0.21313041 0.27017897 2.0165586,0.033101395 0.5752219 2.115424,0.17219806 0.68070036 2.1595879,-0.18319151 0.20499219 1.8277822,0.117717385 0.3626802 1.6479592,-0.055045143 0.65291005 1.80293,0.035312638 0.78359663 1.7559911,0.08463739 -0.29931936 1.6596687,0.23780712 -0.28355822 1.6717429,0.2144366 -0.320661 1.7029129,0.103769235 -0.33546278 1.7517107,0.22204927 -0.32712087 1.6536607,0.11870642 -0.37164286 1.5971131
-0.15867585 0.15478288 1.8927351,-0.1183856 0.002442524 1.8250393,-0.04694172 -0.09991187 1.7683096,0.04164139 -0.269088 1.6841024,0.03184565 -0.25364265 1.7275267,0.091654524 -0.27189323 1.8498977,0.32524335 -0.14542565 1.8462757,0.4235087 -0.07839156 1.6576934,0.4499204 -0.05113929 1.5732627,0.48082247 -0.032223053 1.4759123,0.5203266 -0.058908872 1.5572994,0.020388514 -0.2295903 1.6685739,0.044533707 -0.14584264 1.5769982,0.29314503 -0.041607387 1.5526297,0.5169924 -0.030618753 1.5800354,0.6091327 -0.06856822 1.5820411,0.7021625 -0.10915997 1.593108,0.6135664 -0.11292426 1.5673202,-0.13845171 0.12467192 1.9725325,0.21750684 0.2651435 2.0133886,0.043629482 0.5745921 2.1097317,0.1827381 0.6768337 2.1610012,-0.17691284 0.18193525 1.8207784,0.11319116 0.36558396 1.6478562,-0.05381942 0.6568687 1.8072157,0.041644614 0.78126377 1.7536719,0.08597456 -0.3259713 1.6530328,0.23298223 -0.2815557 1.669701,0.21643433 -0.32324824 1.6994177,0.109535225 -0.3601952 1.7447964,0.22628888 -0.3268443 1.6502634,0.13472486 -0.38880128 1.5899196
-0.14163071 0.10536614 1.8679223,-0.102548465 -0.04806824 1.8029127,-0.040561683 -0.15740877 1.7488213,0.033455774 -0.33873564 1.6779279,0.02464056 -0.31955916 1.7199497,0.06254023 -0.34327045 1.8496054,0.29189026 -0.21767606 1.8058696,0.3890037 -0.15455395 1.6158739,0.41439646 -0.076478206 1.5735201,0.48166525 -0.035409726 1.5061781,0.49889767 -0.07610992 1.5729864,0.015960876 -0.2987864 1.6594386,0.03524361 -0.2270655 1.5574434,0.28499505 -0.12710242 1.5328572,0.5066725 -0.09376542 1.5557265,0.5955938 -0.13658006 1.5681418,0.69234645 -0.16854522 1.5684614,0.59997374 -0.16333236 1.5418762,-0.12335671 0.07597969 1.9482654,0.20911267 0.25952685 2.005617,0.0461192 0.5750047 2.0985615,0.17891419 0.6774398 2.1631813,-0.15810919 0.1318652 1.7954733,0.112354636 0.36271402 1.6514062,-0.05454044 0.6566047 1.8042319,0.034146603 0.7871699 1.7549186,0.072832696 -0.40116218 1.6515812,0.22053458 -0.44415283 1.641472,0.1880503 -0.47494817 1.6711369,0.085722625 -0.45679438 1.734317,0.18770222 -0.47523043 1.6209785,0.07035657 -0.46899015 1.5763521
-0.12616046 0.07687703 1.8647684,-0.08866234 -0.076980785 1.8011507,-0.031858608 -0.1888128 1.747469,0.033624925 -0.37055922 1.6712329,0.027506854 -0.3516999 1.7137221,0.0792433 -0.379007 1.8373246,0.30247176 -0.2466497 1.7870219,0.33190495 -0.1944874 1.5733893,0.3734171 -0.11344255 1.5872941,0.4474005 -0.06617226 1.5327399,0.44792816 -0.11545053 1.5688875,0.016247086 -0.3301077 1.6541301,0.036263324 -0.2577998 1.5531492,0.2831635 -0.15458363 1.5225619,0.5055819 -0.1316111 1.5445282,0.59562135 -0.16968016 1.5612727,0.6947707 -0.19167313 1.5583876,0.60135543 -0.20180506 1.5347469,-0.10600288 0.04869213 1.9448142,0.21003439 0.25611377 2.0060854,0.040498465 0.5652379 2.1043139,0.17131284 0.67473626 2.159206,-0.14433743 0.10229259 1.7925875,0.107920155 0.35523853 1.6557432,-0.05385445 0.65345246 1.8029823,0.028901428 0.7876009 1.754596,0.06989973 -0.43344724 1.6423312,0.21498708 -0.48037368 1.6229482,0.18324293 -0.5110713 1.6532267,0.085319564 -0.49204132 1.7221842,0.1802415 -0.5096488 1.6033227,0.061305635 -0.49839422 1.565425
-0.11491378 0.044522747 1.8606972,-0.0792339 -0.10845712 1.7934164,-0.02689971 -0.22150776 1.7373385,0.034538455 -0.40582365 1.6631842,0.029156236 -0.38619334 1.7054918,0.075076245 -0.41437608 1.8313745,0.308368 -0.29679772 1.7887728,0.34137625 -0.24219945 1.5759683,0.35980442 -0.1529286 1.5900548,0.42327166 -0.08785343 1.5405617,0.43222675 -0.13584813 1.5677994,0.017747201 -0.36525667 1.645603,0.033694122 -0.2982808 1.5401136,0.2810643 -0.19435269 1.5127693,0.50191116 -0.16048001 1.5390952,0.5946109 -0.19322902 1.5531313,0.69565195 -0.20462066 1.5498365,0.6025448 -0.23518023 1.5317355,-0.09544408 0.014091708 1.9402149,0.2039867 0.24571672 2.001341,0.042841807 0.5576258 2.106452,0.17166132 0.6689864 2.1630626,-0.13247046 0.07196376 1.7889925,0.09866594 0.34816328 1.6585367,-0.054317877 0.65363574 1.801457,0.03344215 0.78701884 1.7594498,0.069405496 -0.46989673 1.6348796,0.2148599 -0.51490694 1.6123466,0.18410337 -0.546162 1.6431941,0.08723928 -0.52862936 1.7142935,0.18006064 -0.5446089 1.5933012,0.060080983 -0.5347772 1.557827
-0.0942462 -0.0059941974 1.8447478,-0.06762267 -0.16222742 1.7769078,-0.022807222 -0.2789085 1.718841,0.03195606 -0.47021198 1.6523886,0.030120833 -0.44745457 1.6938859,0.08662453 -0.45771447 1.8195187,0.2832963 -0.31803724 1.7049924,0.33261025 -0.27236816 1.4911863,0.41442287 -0.23108543 1.5073247,0.49127844 -0.17181964 1.5458344,0.43202898 -0.20637198 1.5231284,0.013828084 -0.4304322 1.6332759,0.02886308 -0.36457175 1.5256398,0.27981836 -0.26263067 1.499973,0.50307405 -0.22780772 1.5212942,0.59361726 -0.26834756 1.5352914,0.6949783 -0.28295538 1.5420599,0.60745794 -0.28981593 1.5056264,-0.07071253 -0.03640691 1.9240229,0.18073553 0.24832934 1.9971621,0.030465111 0.55481756 2.1391697,0.15603885 0.6794155 2.1776068,-0.11546754 0.021430282 1.7732619,0.07640384 0.34051523 1.6698291,-0.059713572 0.66139555 1.8042951,0.033684436 0.79195833 1.7599046,0.06436856 -0.5370338 1.62565,0.20786896 -0.5954712 1.615501,0.1713041 -0.6244891 1.6428195,0.06924985 -0.59898245 1.7055947,0.17216381 -0.62173855 1.5923797,0.05645547 -0.6000693 1.5457834
-0.09217016 -0.023383897 1.8417233,-0.06489787 -0.18380514 1.7755697,-0.021274704 -0.30468887 1.7189631,0.029123697 -0.49895677 1.6453902,0.027274454 -0.47719425 1.6884245,0.07048337 -0.49505183 1.8211815,0.30638808 -0.3613692 1.7986593,0.42274487 -0.3273921 1.6051242,0.4414789 -0.24499679 1.562127,0.46611038 -0.14398155 1.5395918,0.428734 -0.2202582 1.526749,0.012386989 -0.4571641 1.6270447,0.02808683 -0.38085753 1.5236192,0.28382972 -0.27560484 1.5042704,0.51295453 -0.2512891 1.5239773,0.6010939 -0.29998276 1.5407473,0.701147 -0.33035302 1.5391356,0.6046834 -0.32422426 1.499854,-0.068338975 -0.05288826 1.9230953,0.17942385 0.24412812 1.9989965,0.019222662 0.5589337 2.1299014,0.15826118 0.6720708 2.1733844,-0.113659784 0.003221484 1.7683465,0.07775539 0.3348385 1.6765738,-0.06801213 0.66016674 1.8100564,0.02164165 0.7923503 1.7527015,0.06031786 -0.56715524 1.6163288,0.20760703 -0.6243629 1.6083053,0.17116177 -0.65290886 1.6382041,0.06717343 -0.62512064 1.7014006,0.17158723 -0.65320605 1.5867288,0.052912302 -0.63633597 1.5390517
-0.07702233 -0.051010262 1.8354015,-0.050473165 -0.20992638 1.7672502,-0.015344717 -0.33266157 1.7101394,0.031213176 -0.52951765 1.6437998,0.025699385 -0.50734824 1.686086,0.048947982 -0.5311316 1.8222582,0.2701751 -0.3885929 1.8868163,0.4256357 -0.34536305 1.7265426,0.44705096 -0.27256256 1.6703554,0.44348243 -0.19853222 1.5946374,0.4255603 -0.27649415 1.6019529,0.019352162 -0.48715368 1.6235844,0.04057783 -0.4221335 1.5142623,0.29109251 -0.30849886 1.4905858,0.51747835 -0.28032476 1.5221761,0.6038764 -0.33304828 1.5126055,0.6927345 -0.36461136 1.5568157,0.5989227 -0.36118555 1.503435,-0.052412197 -0.08138338 1.9158131,0.17564617 0.2290771 1.991342,0.019162342 0.5457759 2.1176834,0.14700666 0.6711547 2.1586888,-0.09921437 -0.023621488 1.7628909,0.06272549 0.32451236 1.6832188,-0.069427185 0.6576422 1.8068489,0.02719403 0.7876679 1.758651,0.061263047 -0.59946346 1.6188885,0.20461476 -0.66469896 1.6142008,0.16571566 -0.6917351 1.6419178,0.06176901 -0.6597247 1.70211,0.16792433 -0.69069266 1.5907083,0.05264125 -0.6657418 1.5397849
-0.045619868 -0.096369304 1.8222603,-0.02404068 -0.25688007 1.7550868,0.0021235254 -0.38263923 1.698982,0.032937147 -0.5842199 1.636206,0.033562772 -0.560103 1.6779002,0.07856977 -0.5718893 1.8104633,0.3030089 -0.41986096 1.7939808,0.43014997 -0.3689832 1.611761,0.46045953 -0.33329472 1.5295213,0.4420183 -0.23800474 1.5726116,0.3795112 -0.32502696 1.4894966,0.020151826 -0.5421537 1.6156737,0.03145484 -0.47812286 1.5039746,0.28156632 -0.3621546 1.4800998,0.5095069 -0.33800957 1.5073271,0.59864974 -0.38722134 1.5035449,0.6865802 -0.4163479 1.5516622,0.59597 -0.41472554 1.4939886,-0.015846273 -0.12556154 1.9015796,0.15329836 0.21842569 1.9902248,0.011137977 0.5451211 2.1103997,0.13996063 0.67014915 2.1512673,-0.07246803 -0.07004539 1.7507346,0.03648071 0.30361503 1.6962358,-0.065320164 0.6519755 1.808722,0.029451929 0.78305644 1.7584221,0.05714003 -0.6564601 1.6108989,0.1986966 -0.72546947 1.5991243,0.15991336 -0.75244546 1.6273032,0.05873239 -0.71966326 1.6921878,0.16044804 -0.74970746 1.5759958,0.044016443 -0.71988475 1.5297945
-0.038660027 -0.11175535 1.8120315,-0.021185221 -0.27405268 1.7475588,0.00034358725 -0.40189257 1.6938927,0.027291745 -0.60282326 1.6266927,0.02862376 -0.57956517 1.66891,0.079546824 -0.5877407 1.7997404,0.29812035 -0.42668086 1.7860084,0.44616604 -0.3752937 1.6201707,0.4777435 -0.3361144 1.5399132,0.4364958 -0.24224547 1.5679595,0.47566453 -0.35587162 1.4963255,0.015071351 -0.5600884 1.6071053,0.02728274 -0.48790392 1.5004388,0.2816736 -0.37965447 1.4833113,0.51185036 -0.36752614 1.4993823,0.60592186 -0.4068776 1.4971193,0.6881117 -0.4387955 1.553182,0.60700995 -0.4324483 1.4808114,-0.009063704 -0.14024542 1.8917716,0.14114729 0.21067096 1.9887038,-0.00021465123 0.5421488 2.0973344,0.13084497 0.6627518 2.1446934,-0.065348335 -0.08606459 1.7401264,0.02118171 0.29649246 1.7096226,-0.07041944 0.6519043 1.809368,0.03302837 0.7763343 1.7587068,0.050100375 -0.6749956 1.5997007,0.19278997 -0.738084 1.5742428,0.1582779 -0.76629037 1.6065725,0.06277418 -0.7368588 1.681177,0.15346222 -0.7643295 1.555402,0.031604193 -0.74024665 1.5209966
-0.029590843 -0.12139438 1.8042699,-0.010472652 -0.28499874 1.7402781,0.008728828 -0.41473073 1.6877549,0.027024722 -0.61833966 1.6210299,0.029360322 -0.5948104 1.6634322,0.07746136 -0.6105452 1.7956735,0.31297433 -0.47128215 1.7878774,0.44761038 -0.41482392 1.6104989,0.49453878 -0.35207683 1.5561154,0.44443524 -0.25801533 1.5659679,0.48855868 -0.3813065 1.4906386,0.016630046 -0.574904 1.6011032,0.029161131 -0.5114655 1.4880255,0.27779013 -0.38763297 1.5131673,0.49162847 -0.37210885 1.6034685,0.5716527 -0.37348154 1.5391207,0.6635917 -0.42298737 1.5519171,0.5782319 -0.42706725 1.5164648,0.0051751602 -0.1482033 1.8831974,0.13193883 0.21270521 1.9876686,-0.0060316324 0.54651254 2.102341,0.13023722 0.6648747 2.1453953,-0.060940877 -0.0972196 1.7330974,0.009365164 0.29234284 1.7190231,-0.073134385 0.65426296 1.8131393,0.03399565 0.7757694 1.7592297,0.046804987 -0.69206583 1.5942008,0.18942179 -0.7588545 1.571124,0.15390384 -0.7858418 1.6040453,0.05778368 -0.7526891 1.6777276,0.1494671 -0.7849562 1.5524563,0.027510367 -0.7591986 1.5163306
-0.0050476925 -0.13958396 1.7959598,0.0061144936 -0.30555457 1.7334129,0.017459856 -0.43763116 1.6823008,0.025199316 -0.6432166 1.615625,0.031463612 -0.6193712 1.6577685,0.101585984 -0.6212013 1.7816926,0.32853675 -0.4684713 1.7509903,0.4751279 -0.40987313 1.5822991,0.4940756 -0.33510852 1.5252727,0.44012272 -0.25212967 1.5675722,0.4797791 -0.35060924 1.4654737,0.014384389 -0.5993886 1.596101,0.02918633 -0.5289829 1.4866229,0.28917855 -0.42378137 1.4840274,0.50954765 -0.4336948 1.5619926,0.58081686 -0.42591822 1.4876494,0.6813636 -0.45883563 1.4882578,0.5833574 -0.44178268 1.4657762,0.03650223 -0.16560486 1.8724222,0.123989575 0.20409092 1.9936756,0.00017083436 0.54649067 2.1062899,0.13295145 0.670155 2.1498969,-0.042515088 -0.11611977 1.7270104,-0.003468357 0.28020594 1.7365257,-0.06843047 0.650679 1.8193046,0.03272479 0.7745641 1.7568594,0.040980134 -0.71803117 1.587786,0.18562311 -0.78530556 1.5745841,0.14897324 -0.8102604 1.6083887,0.049538754 -0.77246 1.6764401,0.14631543 -0.8132812 1.5564628,0.024817199 -0.7913814 1.5141234
0.004852562 -0.14975044 1.7856728,0.014661803 -0.31449863 1.7239035,0.022977728 -0.44608584 1.6742778,0.02616965 -0.65155303 1.6129581,0.03433624 -0.6269564 1.6538516,0.109265335 -0.62850046 1.7735224,0.3345345 -0.477947 1.7404592,0.4732271 -0.42134222 1.5671242,0.4928617 -0.33781767 1.5260793,0.44222963 -0.25328618 1.5670949,0.47800842 -0.34700266 1.460516,0.014996194 -0.60848033 1.592998,0.027039051 -0.5408735 1.4827338,0.28342295 -0.43330115 1.4758799,0.50317156 -0.43982854 1.5499737,0.5839446 -0.4298234 1.4878165,0.6780947 -0.47487658 1.477237,0.5911526 -0.462863 1.4576312,0.049464215 -0.17487521 1.859769,0.10546995 0.19707529 1.9817615,0.0048558116 0.5406615 2.1027637,0.13152237 0.66726327 2.1493366,-0.035375725 -0.12709433 1.7188569,-0.01962111 0.26708758 1.7389066,-0.062698245 0.6384177 1.8169775,0.032446064 0.7690388 1.7633965,0.040024765 -0.7265302 1.586562,0.18332523 -0.7939516 1.5759972,0.14580539 -0.8193305 1.6076953,0.04544437 -0.78296494 1.6731554,0.14472875 -0.8208864 1.5560868,0.025747411 -0.7970988 1.5110743
0.010210586 -0.15359718 1.7845911,0.019406497 -0.3176906 1.7220283,0.023859434 -0.44954348 1.6734477,0.025779992 -0.6554242 1.6150825,0.03447059 -0.63033736 1.6554483,0.111189455 -0.6317863 1.7736328,0.33890563 -0.48411062 1.7505001,0.48450685 -0.4354894 1.5810771,0.49657115 -0.35089946 1.539747,0.44306278 -0.26165828 1.5624905,0.4740219 -0.35485524 1.4744058,0.0145140095 -0.6126898 1.5946981,0.02258675 -0.54675347 1.4833813,0.27661937 -0.4350413 1.478939,0.49965456 -0.42939645 1.5407695,0.5846263 -0.43171358 1.484033,0.6800941 -0.47429004 1.4782342,0.5902481 -0.4629357 1.4581935,0.053130325 -0.17961839 1.8591497,0.100223765 0.19366449 1.9781542,0.010365762 0.54121995 2.0937264,0.13308665 0.6669918 2.1504807,-0.028492033 -0.1301327 1.7173584,-0.024735983 0.26320454 1.7429826,-0.064951494 0.635234 1.81517,0.032239832 0.7659354 1.7668331,0.03909729 -0.73064405 1.5896264,0.18150356 -0.7990636 1.5783383,0.14354126 -0.8248961 1.6089246,0.043204866 -0.78945684 1.6744357,0.14288951 -0.82496786 1.5573924,0.024784848 -0.7987391 1.5121963
0.009993065 -0.15375784 1.7845563,0.019097105 -0.31783777 1.7219056,0.023309609 -0.44971555 1.673339,0.024474833 -0.6555987 1.6149005,0.03332337 -0.63055 1.6552603,0.11033879 -0.6321764 1.7732627,0.33849442 -0.4852842 1.7492347,0.48384207 -0.4372965 1.5793893,0.49621007 -0.35266802 1.5382109,0.44306847 -0.2632562 1.5611825,0.47366863 -0.35613212 1.4730405,0.013301078 -0.61281955 1.59455,0.021290358 -0.5470908 1.4830925,0.2758091 -0.43645507 1.4781892,0.49902403 -0.43138528 1.5394874,0.5839503 -0.4336753 1.4826672,0.67942905 -0.47623235 1.4767582,0.5896853 -0.46459612 1.4569935,0.052926935 -0.1798368 1.8590951,0.100121304 0.19339056 1.9783368,0.010314762 0.5408774 2.094252,0.13323794 0.666421 2.1511211,-0.028722294 -0.1302413 1.7173413,-0.024837898 0.26310414 1.7432988,-0.06501187 0.6350851 1.8159168,0.032356963 0.7658029 1.7679353,0.037508972 -0.73085743 1.5893925,0.17945518 -0.80007 1.5770202,0.14154497 -0.82575274 1.6078044,0.04183881 -0.7898787 1.6740557,0.14055334 -0.82571054 1.5562735,0.022296213 -0.7987093 1.5119094
0.009990068 -0.15377082 1.7845746,0.01909273 -0.3178512 1.7219186,0.023296673 -0.44973087 1.6733513,0.024428425 -0.6556164 1.6149105,0.03327388 -0.63056976 1.655273,0.11023542 -0.63230985 1.7733111,0.3385126 -0.4855523 1.7495778,0.48406392 -0.43736377 1.57996,0.49651766 -0.3526753 1.5389282,0.44340292 -0.2632687 1.5619884,0.47403318 -0.35602713 1.4737267,0.013268585 -0.612834 1.5945578,0.021305053 -0.54710466 1.4831022,0.27586904 -0.43655896 1.4783155,0.49907076 -0.4315718 1.5396796,0.5840127 -0.4338684 1.482881,0.67948306 -0.47644907 1.4769822,0.58974457 -0.46478167 1.4571978,0.05292152 -0.17985328 1.859115,0.10012041 0.19335975 1.9784166,0.010309443 0.5408436 2.094353,0.13321726 0.6663676 2.151306,-0.028723111 -0.13025112 1.7173582,-0.024825966 0.263098 1.7433348,-0.06499519 0.6350806 1.8159729,0.032389283 0.76580894 1.7680441,0.03745139 -0.7308788 1.5894045,0.17937617 -0.80013734 1.5770179,0.1414592 -0.8258102 1.6078033,0.041767776 -0.78990793 1.6740645,0.14046416 -0.82576424 1.5562717,0.02221132 -0.7987214 1.5119168
0.010026319 -0.15548095 1.7839007,0.019088812 -0.31961071 1.7210699,0.02301864 -0.45158088 1.6724793,0.022986902 -0.6574789 1.6135991,0.031780764 -0.6325619 1.6540881,0.106875286 -0.63719904 1.773346,0.337763 -0.49323118 1.757055,0.49145263 -0.44085455 1.5958815,0.5013999 -0.35788253 1.5507325,0.4477634 -0.2671209 1.5664061,0.47479397 -0.36450088 1.4855003,0.012256368 -0.61455 1.5932537,0.020906813 -0.54953253 1.4813364,0.27645248 -0.4407694 1.4788338,0.49982485 -0.43465567 1.5400031,0.58412313 -0.4351232 1.4821004,0.67994124 -0.47680408 1.4745272,0.5894306 -0.46530873 1.4554293,0.052897185 -0.18167254 1.8585032,0.099732615 0.19190344 1.9776013,0.010508925 0.5395425 2.0942657,0.13422003 0.66453195 2.151017,-0.028632225 -0.13186283 1.7166283,-0.024173388 0.26163238 1.7438881,-0.06455515 0.6334839 1.8182681,0.033224672 0.7650838 1.7732539,0.035616297 -0.7328305 1.5880052,0.17739618 -0.80294037 1.577698,0.13877764 -0.8285473 1.6077166,0.03812114 -0.7923396 1.6724781,0.13866833 -0.8282398 1.5561452,0.021290205 -0.8002342 1.5098782
0.010036983 -0.15550584 1.7838653,0.019105207 -0.31964427 1.7210463,0.023038926 -0.45162153 1.6724657,0.023006203 -0.65753126 1.6136079,0.031793125 -0.6326096 1.6540967,0.10683148 -0.63728774 1.7733922,0.33779436 -0.49340993 1.7572635,0.49164498 -0.44101527 1.5962418,0.50218004 -0.35844892 1.5504818,0.44888473 -0.26732466 1.5652034,0.4765733 -0.36610678 1.4849402,0.012282733 -0.6146029 1.5932547,0.020961665 -0.54961693 1.4813176,0.2765258 -0.44087958 1.4788533,0.49988872 -0.43476185 1.5400774,0.58420265 -0.43525076 1.4821935,0.6800228 -0.47693914 1.4746534,0.5895137 -0.4654435 1.4555308,0.052907847 -0.18169098 1.8584727,0.09969658 0.19195358 1.9774048,0.010445014 0.5396041 2.0940425,0.13419427 0.66468567 2.1505213,-0.028621562 -0.13189355 1.7165886,-0.024183573 0.26161346 1.7438163,-0.064589195 0.6334767 1.8181707,0.033193402 0.7650815 1.7731618,0.035636418 -0.73288846 1.5880246,0.17743693 -0.80297416 1.5777795,0.13881154 -0.8285845 1.6077887,0.038122214 -0.7923854 1.6725097,0.13872086 -0.828285 1.556216,0.021351308 -0.8003086 1.5099009
0.0100370385 -0.15550743 1.7838598,0.019105908 -0.3196466 1.7210407,0.023040365 -0.45162433 1.6724596,0.023004154 -0.6575319 1.6135911,0.031790674 -0.6326124 1.6540817,0.1068228 -0.63730526 1.7733814,0.3377974 -0.49344087 1.7572811,0.49166733 -0.44103593 1.5962797,0.5022839 -0.3585273 1.5504338,0.44903728 -0.2673523 1.5650203,0.47680715 -0.36633006 1.4848517,0.012282206 -0.6146021 1.5932398,0.020968646 -0.54961073 1.4813058,0.27653995 -0.44088653 1.4788699,0.49990058 -0.43478674 1.5401078,0.58421814 -0.43527308 1.4822283,0.68003714 -0.47696537 1.4746888,0.5895293 -0.46546307 1.4555622,0.052907784 -0.18169259 1.8584677,0.09969191 0.19195636 1.9773935,0.01043459 0.5396066 2.094033,0.13418281 0.6646944 2.1505024,-0.028621398 -0.13189512 1.7165827,-0.024188178 0.2616138 1.7438079,-0.064598285 0.6334785 1.818161,0.033183917 0.76508486 1.7731528,0.03563325 -0.73288846 1.5880042,0.17744523 -0.80294156 1.5776845,0.13883659 -0.8285688 1.6077013,0.038163997 -0.79240954 1.6724716,0.13872609 -0.8282544 1.5561284,0.02133239 -0.80028933 1.5098662
0.010911384 -0.15637049 1.7819651,0.019989349 -0.3204517 1.7191257,0.023775922 -0.45241588 1.6706033,0.022681396 -0.6582032 1.6115296,0.03150988 -0.63338494 1.652058,0.10566971 -0.6380484 1.7718593,0.33736607 -0.49562582 1.7545701,0.4950611 -0.44791508 1.5959128,0.5335429 -0.39741328 1.5252997,0.46630162 -0.31593773 1.5113275,0.5370852 -0.44942734 1.4741827,0.012264905 -0.61520106 1.5912029,0.021301948 -0.5509949 1.4788837,0.27696952 -0.44267905 1.4766957,0.5002936 -0.4357544 1.5377485,0.5848013 -0.4360357 1.4801934,0.680773 -0.47747013 1.4736198,0.59051406 -0.46570158 1.4539529,0.053723823 -0.18257435 1.8565714,0.099525064 0.19175388 1.9733802,0.010200158 0.53890085 2.0911405,0.1337539 0.66411173 2.1476042,-0.027694479 -0.13274129 1.7146894,-0.023305649 0.2606427 1.7422227,-0.06422671 0.63220465 1.8172921,0.03322748 0.7647666 1.7746054,0.03492973 -0.7335855 1.5859003,0.17769799 -0.8010712 1.5726999,0.13997127 -0.8277091 1.6029308,0.039674215 -0.79406923 1.6695513,0.13911356 -0.8267652 1.5513862,0.02064415 -0.8002398 1.5071582
0.017637491 -0.15562007 1.7711035,0.025878537 -0.32010573 1.7104634,0.026865536 -0.45278215 1.664841,0.02010712 -0.65997076 1.6134634,0.030135049 -0.63398457 1.6528211,0.103327386 -0.63761985 1.7728423,0.33320355 -0.49658746 1.7387013,0.4914534 -0.44476086 1.5827264,0.53666025 -0.39329162 1.5173037,0.4661036 -0.3139404 1.5124233,0.53490436 -0.44523293 1.460825,0.010375284 -0.6176027 1.5917985,0.017835556 -0.5567791 1.4778631,0.27127504 -0.4450757 1.4743737,0.4949541 -0.4191922 1.5261542,0.5827459 -0.4357129 1.476939,0.67850196 -0.47728652 1.472614,0.58689386 -0.46674252 1.4557728,0.060895752 -0.1808833 1.8455086,0.091516584 0.19308014 1.9651161,0.01164522 0.53588027 2.0983884,0.13184015 0.6662926 2.1484718,-0.021370385 -0.1328391 1.7040092,-0.026779566 0.2587214 1.7415551,-0.0647276 0.6297303 1.816128,0.028595962 0.7641969 1.7718723,0.030179713 -0.7363068 1.590472,0.17551287 -0.7956816 1.5720336,0.1391559 -0.8264319 1.5996796,0.037727088 -0.8033 1.6684487,0.13822022 -0.8211214 1.5485305,0.018925808 -0.7963905 1.506467
0.017584223 -0.15568124 1.7706357,0.025813121 -0.32022488 1.7100223,0.026674537 -0.45296818 1.6644826,0.019577434 -0.66028833 1.6134573,0.02971312 -0.6342404 1.6527616,0.10294613 -0.63789564 1.7727993,0.333933 -0.4992209 1.7360474,0.49053758 -0.45042515 1.5773728,0.5364221 -0.3975156 1.5135558,0.46695122 -0.31706554 1.5111078,0.5351122 -0.44637603 1.455869,0.009850509 -0.6179352 1.5917337,0.017032862 -0.5577992 1.477379,0.27036586 -0.44568884 1.4736384,0.494191 -0.4187801 1.5245191,0.5821545 -0.43541765 1.475597,0.6779975 -0.47694108 1.4721698,0.58680165 -0.46666142 1.4550968,0.060860895 -0.18093333 1.8450613,0.09114271 0.19339342 1.9639455,0.011400767 0.53638434 2.097074,0.1313231 0.6667128 2.1481905,-0.021440256 -0.13291034 1.7035229,-0.026729088 0.25873846 1.741211,-0.06479819 0.6297556 1.8161727,0.028298542 0.76465005 1.7725812,0.029520629 -0.7366943 1.5905707,0.17459352 -0.79634416 1.5706835,0.13856001 -0.82687414 1.5990163,0.03801529 -0.8031616 1.6689337,0.13697208 -0.82192117 1.5478344,0.01713764 -0.7973721 1.5071208
0.018800844 -0.15653723 1.769245,0.02694207 -0.3205814 1.7074056,0.027356414 -0.45301497 1.6610727,0.02001643 -0.659925 1.6086594,0.030056674 -0.63416624 1.6481634,0.100326926 -0.6388989 1.7698814,0.33215618 -0.5001651 1.7397566,0.48936015 -0.45265266 1.5813674,0.52061594 -0.43478793 1.4937497,0.46644735 -0.34392363 1.504152,0.5364251 -0.45109108 1.4633558,0.010462782 -0.6174187 1.5871863,0.014636803 -0.557399 1.4726578,0.26898965 -0.44795445 1.4796227,0.49125195 -0.4199783 1.5361978,0.57697266 -0.42951632 1.4817593,0.6712725 -0.473339 1.4715859,0.5820908 -0.46560067 1.4579911,0.06206674 -0.18236387 1.8434523,0.08815681 0.19221255 1.9622178,0.012890592 0.53548664 2.0969465,0.13195452 0.66594905 2.1495404,-0.02021392 -0.13324822 1.7023289,-0.027640618 0.2579044 1.7436113,-0.06357095 0.62923324 1.8175967,0.026355207 0.7650583 1.7705414,0.029882193 -0.7361795 1.5853093,0.17528178 -0.7965642 1.5711706,0.13845806 -0.826147 1.5994655,0.036160298 -0.80015767 1.6658878,0.13824174 -0.8227956 1.5481424,0.019609645 -0.7994071 1.5035146
0.019161092 -0.15566663 1.7646635,0.02857081 -0.31902406 1.7035359,0.028671581 -0.4512107 1.6585158,0.018273713 -0.657352 1.6077145,0.028574303 -0.63160926 1.6468834,0.09181667 -0.6391209 1.7715158,0.32407445 -0.5045746 1.7375027,0.48499364 -0.4546727 1.5852462,0.527571 -0.4393915 1.5025294,0.50159013 -0.33894244 1.5232006,0.52264553 -0.4503098 1.4587507,0.009476263 -0.6150483 1.5860366,0.012642851 -0.5556968 1.4718163,0.26696405 -0.44945312 1.4774987,0.48860365 -0.41419896 1.5276393,0.57660437 -0.43140426 1.4800533,0.67271084 -0.47055605 1.4734023,0.5806482 -0.46546474 1.4593054,0.06277605 -0.1807497 1.8384094,0.08412466 0.19209145 1.9574311,0.01539164 0.5336191 2.0951054,0.13366589 0.66433567 2.1457734,-0.020168433 -0.13304813 1.6981633,-0.02828566 0.25582474 1.7430398,-0.06127432 0.6255175 1.8173791,0.023426186 0.76275116 1.7676673,0.026960926 -0.7335453 1.585008,0.17198859 -0.78760564 1.5567886,0.13885301 -0.81940234 1.5866914,0.042068884 -0.7997839 1.661882,0.13426614 -0.8142423 1.5359691,0.012169242 -0.7938465 1.5023223
0.019992111 -0.15585038 1.7621766,0.029243544 -0.31962693 1.7020891,0.028138591 -0.45235562 1.6586477,0.017524306 -0.65909916 1.6102785,0.028201235 -0.63289785 1.6490482,0.08964544 -0.6412589 1.774544,0.32229382 -0.5093144 1.7334579,0.48229694 -0.45503914 1.581688,0.5312648 -0.43939504 1.5026425,0.5218709 -0.3398763 1.5373278,0.5231483 -0.44963375 1.4572316,0.00842948 -0.61704993 1.5882174,0.013734997 -0.5580442 1.473878,0.2670996 -0.44933444 1.4767135,0.48858505 -0.4034379 1.5183403,0.5777876 -0.43099117 1.4784524,0.6747186 -0.46844944 1.4742478,0.5789402 -0.46509868 1.4607828,0.06477043 -0.18021478 1.8354794,0.08605701 0.19237985 1.9554518,0.015664496 0.5315164 2.0982392,0.13301106 0.6639507 2.1466408,-0.02038647 -0.13387993 1.6960763,-0.03056968 0.25520656 1.7390957,-0.06560798 0.6243013 1.8156903,0.018958338 0.7621778 1.7674752,0.026090737 -0.7355412 1.5883375,0.17209308 -0.7898735 1.5662066,0.13770774 -0.8215602 1.5947998,0.037937537 -0.80163383 1.6659238,0.13521194 -0.81650895 1.5439141,0.014611684 -0.7960184 1.5052382
0.019933783 -0.15539499 1.7642262,0.029043678 -0.31990534 1.7059702,0.02814919 -0.4531377 1.6639297,0.018960096 -0.65968966 1.6141412,0.029771663 -0.6336616 1.6530113,0.09140618 -0.63998085 1.7785883,0.32240808 -0.507343 1.730425,0.48680198 -0.45386377 1.5830075,0.54069144 -0.44096646 1.506675,0.5537137 -0.35147423 1.5616728,0.5245058 -0.45071566 1.4601393,0.009266734 -0.6175535 1.592467,0.0129818395 -0.5580683 1.4782622,0.26653987 -0.44981265 1.4703764,0.4900333 -0.40293616 1.4984071,0.5831912 -0.4377237 1.4777669,0.6820729 -0.46985728 1.4740378,0.5809536 -0.4656697 1.4591821,0.06542139 -0.17880315 1.8374422,0.08883489 0.19343176 1.9585814,0.014528111 0.5340081 2.0962124,0.13377467 0.6629413 2.149429,-0.021084394 -0.13428682 1.6982042,-0.030046701 0.2551521 1.7395309,-0.06437297 0.62480956 1.8143748,0.019750886 0.76349723 1.7675226,0.02801792 -0.73591655 1.5915556,0.17192706 -0.7926908 1.5625249,0.13823555 -0.8240352 1.5923326,0.042034052 -0.80298513 1.667982,0.13360247 -0.81844497 1.5416352,0.011779457 -0.79538894 1.5084792
0.019943213 -0.15541175 1.7642604,0.029054359 -0.31991568 1.7059658,0.028174423 -0.4531411 1.6638846,0.019007575 -0.6596802 1.6140031,0.029798856 -0.6336676 1.6528914,0.09133049 -0.6401961 1.7785143,0.3223702 -0.5074546 1.7307594,0.48713136 -0.4538837 1.5837718,0.5415508 -0.4411269 1.507788,0.5541369 -0.3514707 1.5626281,0.5256783 -0.4510963 1.4611804,0.009326667 -0.6175331 1.5923401,0.013023589 -0.5580869 1.4781086,0.2665302 -0.44969207 1.4701023,0.48999473 -0.4025637 1.498015,0.5831784 -0.43733215 1.4774395,0.68208426 -0.46941507 1.4738021,0.58096504 -0.46535403 1.458926,0.065420575 -0.17883979 1.8374807,0.08888651 0.19336505 1.9587525,0.01471702 0.5339698 2.096427,0.13407591 0.6626929 2.149925,-0.021065729 -0.13428566 1.6982344,-0.029995896 0.25515014 1.739744,-0.064357184 0.624771 1.8148279,0.019756958 0.7635069 1.7680773,0.028076407 -0.7359008 1.5913897,0.17227557 -0.79258025 1.5636058,0.13839342 -0.823888 1.5932394,0.041588984 -0.80275416 1.6681004,0.1341404 -0.81843626 1.5424916,0.012541853 -0.795613 1.5083458
0.015502703 -0.15417962 1.7664176,0.025176294 -0.3194422 1.7087033,0.024346082 -0.4534006 1.667488,0.017440407 -0.6605911 1.6170752,0.029894251 -0.6343594 1.6555045,0.10747111 -0.63901895 1.7725266,0.33534354 -0.49904576 1.725347,0.45020756 -0.45756316 1.5329053,0.53561294 -0.4442576 1.4943959,0.5555501 -0.36534303 1.562587,0.5456252 -0.44491675 1.4478765,0.005394046 -0.6184997 1.5961612,-0.00038958946 -0.5590885 1.4815388,0.255035 -0.45325163 1.4706863,0.4788347 -0.4330655 1.5233939,0.571258 -0.4379669 1.4807954,0.6727101 -0.46219414 1.4770571,0.5799834 -0.46549362 1.4596673,0.062325988 -0.17691022 1.8393539,0.089813225 0.19657189 1.959867,0.013299324 0.53923243 2.094351,0.1382265 0.6616369 2.1518128,-0.026719913 -0.13368243 1.7006478,-0.029940508 0.25730905 1.7400198,-0.06615563 0.62710094 1.819321,0.022924356 0.76206124 1.768928,0.027107336 -0.7367195 1.5935215,0.17337453 -0.78939015 1.5658355,0.14009717 -0.8219956 1.5950736,0.042084552 -0.80416644 1.6698747,0.13593473 -0.81613153 1.5442007,0.01354935 -0.7961766 1.5095454
0.013505587 -0.1555224 1.7674834,0.02349333 -0.3209375 1.7103919,0.024548342 -0.45471632 1.6687167,0.017463483 -0.66156137 1.6171421,0.029426964 -0.6355925 1.6558897,0.09813816 -0.64317536 1.7781427,0.33958828 -0.51916736 1.7724499,0.49713564 -0.49527034 1.6095667,0.5324835 -0.46932456 1.5257388,0.5474281 -0.36924335 1.5578324,0.529843 -0.45069438 1.4863007,0.0059531396 -0.6193165 1.5962628,-0.0003736746 -0.55554646 1.4840724,0.25648794 -0.45616576 1.458198,0.48437572 -0.4239189 1.474732,0.57931703 -0.46065968 1.4781916,0.6789126 -0.49171266 1.480346,0.5851298 -0.47838277 1.4516126,0.060284488 -0.17790857 1.8405278,0.08984982 0.196632 1.9568815,0.017118618 0.5384896 2.0951989,0.13718651 0.66636777 2.15093,-0.028677007 -0.13533582 1.7016159,-0.026942998 0.2562598 1.7333952,-0.0666005 0.6250953 1.8150283,0.022421747 0.7616153 1.7690672,0.027139794 -0.737596 1.5933568,0.17527764 -0.79034096 1.5793608,0.1395749 -0.82263404 1.6059386,0.035349347 -0.80405986 1.6715441,0.13992122 -0.8174026 1.5548406,0.021094218 -0.79808664 1.5092732
0.0069108335 -0.15162626 1.7725699,0.018770233 -0.3171909 1.7145646,0.023489945 -0.4507617 1.6710186,0.018290233 -0.65781534 1.6172941,0.029354665 -0.63207066 1.6566441,0.09666851 -0.64068127 1.7801139,0.3435373 -0.52626634 1.7920607,0.5146463 -0.50665694 1.6417582,0.53625053 -0.4821801 1.5526465,0.54443765 -0.37609035 1.5570339,0.5238591 -0.456505 1.5137453,0.007033192 -0.61529213 1.5964833,0.0016870899 -0.5508372 1.4841597,0.26182127 -0.45794058 1.4574882,0.49020565 -0.4225965 1.4707683,0.58375555 -0.4619657 1.4826101,0.6866185 -0.48018813 1.4759272,0.59073377 -0.48490545 1.4470677,0.055449404 -0.1735128 1.8449645,0.091552734 0.20385362 1.954366,0.018468596 0.54533356 2.0966249,0.144513 0.6691307 2.1502697,-0.036858533 -0.13189021 1.7072885,-0.025673822 0.26136947 1.7310449,-0.067513734 0.62912416 1.8216023,0.02312594 0.7619964 1.7669482,0.028799534 -0.73383826 1.5929692,0.17946854 -0.7807197 1.5794652,0.14462994 -0.8150708 1.604949,0.038725384 -0.80197674 1.6699377,0.1453351 -0.8086104 1.553831,0.025981702 -0.7927092 1.5071756
0.004759059 -0.14887744 1.7742198,0.01632314 -0.31455052 1.7169732,0.022050075 -0.44790667 1.6733191,0.015365979 -0.65537554 1.6222306,0.026175817 -0.629266 1.6613545,0.092067696 -0.63469195 1.7856177,0.3316333 -0.5079608 1.8098047,0.5129935 -0.48424292 1.6730537,0.5422341 -0.49528515 1.5835397,0.5426363 -0.39199445 1.5580301,0.5204109 -0.46267182 1.5325129,0.004844211 -0.6130498 1.6007509,0.00305317 -0.54901433 1.488216,0.26386008 -0.45941874 1.4596195,0.49130255 -0.41770694 1.4633235,0.58253455 -0.45945036 1.4821969,0.6847521 -0.4815466 1.4818804,0.59144926 -0.4858994 1.4551916,0.05363774 -0.17040265 1.8463881,0.09200882 0.20620829 1.956275,0.016141102 0.5463015 2.099451,0.14196129 0.6696757 2.1539886,-0.039317 -0.12946722 1.7091424,-0.022937236 0.26367572 1.7239512,-0.06846102 0.6288116 1.8215399,0.022827424 0.76129377 1.7675217,0.025376983 -0.73173976 1.5990433,0.17865956 -0.76684946 1.5815586,0.14685751 -0.8046424 1.606007,0.041468076 -0.80202186 1.6728461,0.14625022 -0.79605174 1.5552517,0.025419623 -0.78701586 1.5109618
-0.00701324 -0.1391464 1.7830113,0.009084978 -0.30396453 1.7243415,0.019586142 -0.43639445 1.678741,0.022606984 -0.64309764 1.6242034,0.030666381 -0.617296 1.6641928,0.0887137 -0.6260696 1.7921424,0.33049756 -0.5075099 1.8313911,0.516873 -0.48137584 1.7019718,0.5481027 -0.49015412 1.6128671,0.542757 -0.39746803 1.5608722,0.5171298 -0.46423662 1.5601295,0.011600743 -0.6007962 1.6029052,0.010450959 -0.5421583 1.4874392,0.27282315 -0.4552911 1.4650825,0.49983126 -0.41233143 1.4759934,0.58809257 -0.4617163 1.4899837,0.68506926 -0.48734742 1.5196168,0.6030036 -0.48765734 1.4615031,0.03958728 -0.16080618 1.8566457,0.09812451 0.21234593 1.9695778,0.006957993 0.5534595 2.10105,0.14092478 0.6709974 2.1487224,-0.049034975 -0.119614825 1.716612,-0.019474689 0.27294147 1.7272958,-0.069917426 0.6379919 1.8229555,0.024006352 0.7661884 1.7633369,0.03637346 -0.7186743 1.6003356,0.1938191 -0.73358554 1.6057067,0.16396272 -0.774026 1.6283194,0.050772257 -0.78224146 1.6803353,0.16937795 -0.76822484 1.5774474,0.055758506 -0.7779127 1.5170795
-0.008268973 -0.1380221 1.7839411,0.007812026 -0.30258352 1.7253872,0.018696668 -0.43470025 1.67966,0.024583973 -0.6410357 1.6253043,0.032336254 -0.61514133 1.6652013,0.09089129 -0.62360966 1.7926917,0.3234938 -0.49344862 1.8453577,0.5098518 -0.4631454 1.7174758,0.54590034 -0.4842347 1.6325111,0.54094154 -0.4045455 1.5624285,0.5146085 -0.46531194 1.5745156,0.012945174 -0.59897596 1.6040413,0.010340744 -0.541955 1.4880227,0.27192968 -0.45373386 1.4673496,0.4978794 -0.44436178 1.5140953,0.5956451 -0.47318375 1.5125209,0.69699264 -0.48497623 1.534752,0.614741 -0.48259288 1.4761267,0.038264237 -0.15963322 1.8574572,0.09747073 0.21213746 1.9723788,0.0069124773 0.55249393 2.104506,0.14070484 0.671021 2.1489697,-0.05023001 -0.11853439 1.7176485,-0.019715909 0.27334735 1.7271402,-0.069939874 0.63800895 1.8219718,0.023410914 0.76624537 1.7623116,0.03936921 -0.71629745 1.6014844,0.19733882 -0.71392006 1.6019578,0.1728464 -0.75804514 1.623902,0.06309948 -0.7803353 1.6786208,0.17598805 -0.75005555 1.5732192,0.06244871 -0.77023065 1.5158077
-0.024827264 -0.13140687 1.7871885,-0.0044477247 -0.29589298 1.7284508,0.012845246 -0.42707264 1.6809614,0.03285519 -0.6318851 1.6222903,0.038069192 -0.606404 1.6630026,0.098574705 -0.6114654 1.7901491,0.31943446 -0.4522943 1.781586,0.4631006 -0.4040659 1.6104286,0.47692773 -0.40444332 1.5165316,0.43893892 -0.35177663 1.6009468,0.49547762 -0.386496 1.486811,0.019085985 -0.59005064 1.6015866,0.023136873 -0.5323978 1.4855622,0.28163436 -0.43230328 1.4720868,0.50023365 -0.44753975 1.5467494,0.59704655 -0.47252426 1.525626,0.7010859 -0.48347813 1.5294744,0.60741895 -0.47992027 1.4780387,0.021265224 -0.15222536 1.8614796,0.10120384 0.21592002 1.9788578,0.0018812716 0.55396557 2.1132717,0.13637017 0.6751258 2.1497176,-0.06639089 -0.11263393 1.720197,-0.015848935 0.27826983 1.7221084,-0.0702142 0.6423434 1.8206447,0.024288386 0.7703182 1.7610354,0.052888066 -0.7057203 1.5971991,0.20825468 -0.6789835 1.5819952,0.1930483 -0.7277353 1.6028662,0.094253086 -0.77008444 1.6665761,0.18934666 -0.7162477 1.5527664,0.074066184 -0.75022596 1.5055121
-0.03384789 -0.12479065 1.7935301,-0.00921664 -0.2871316 1.7323496,0.011277689 -0.41663 1.6830143,0.04211251 -0.6199101 1.6264794,0.04661718 -0.5937435 1.6666367,0.10624955 -0.5955714 1.793736,0.3255229 -0.4361 1.7812555,0.4550498 -0.38826025 1.6000689,0.43873906 -0.37347338 1.50809,0.46981007 -0.3644731 1.6091689,0.42836654 -0.36799592 1.473399,0.025520429 -0.5793723 1.6056675,0.021844719 -0.5217279 1.4901351,0.2795648 -0.42355374 1.469552,0.50461805 -0.37693888 1.4894183,0.5958149 -0.421432 1.497989,0.6977566 -0.44268566 1.4917974,0.603638 -0.43647754 1.460141,0.012528263 -0.14554746 1.8672788,0.10429662 0.21955587 1.9807925,0.0017090664 0.5559805 2.1130958,0.13596837 0.6757349 2.1516917,-0.07566731 -0.10607332 1.7270277,-0.013424281 0.28153995 1.7145236,-0.07152094 0.6417496 1.8197384,0.020043708 0.7702855 1.7584713,0.06589736 -0.6924867 1.6019033,0.21916139 -0.65746284 1.5880328,0.20649832 -0.70767 1.6065022,0.11042713 -0.75769174 1.6679155,0.20212504 -0.69406813 1.5571778,0.088968456 -0.7313482 1.5085369
-0.048698783 -0.09656679 1.8043758,-0.018155897 -0.25421733 1.7438653,0.011559218 -0.37801936 1.6927674,0.052826453 -0.5748105 1.6363788,0.058639627 -0.5483333 1.6749526,0.13403912 -0.5438946 1.7898536,0.35283148 -0.3973347 1.7537471,0.46550468 -0.3453543 1.568345,0.42988175 -0.351076 1.483039,0.474709 -0.3179925 1.5707802,0.42582232 -0.36622244 1.453373,0.031627256 -0.53685653 1.6172574,0.005116934 -0.49230343 1.5018723,0.25340566 -0.3868218 1.4778187,0.46119505 -0.39574838 1.5660406,0.5500858 -0.41330543 1.5243771,0.64878213 -0.40874988 1.4983925,0.54694337 -0.43532002 1.4770479,-0.0033453703 -0.11564739 1.8769796,0.14542909 0.2223029 1.9862373,0.00913763 0.5437478 2.1025562,0.12643111 0.6727846 2.1479745,-0.08959594 -0.07936098 1.7389058,0.009979725 0.28953606 1.6946102,-0.06762232 0.63546395 1.8068974,0.01886841 0.7698887 1.7628977,0.07959379 -0.64412475 1.6108301,0.22832406 -0.60479945 1.5959096,0.2177456 -0.654319 1.6141984,0.12587935 -0.7063244 1.6752325,0.21260951 -0.64125997 1.5659055,0.1026951 -0.68160355 1.5192813
-0.057055835 -0.07141641 1.8207436,-0.02575795 -0.22713815 1.7562706,0.0049929656 -0.34936637 1.7024597,0.049594566 -0.54203004 1.6360652,0.050463762 -0.51896596 1.6771182,0.098495044 -0.53551733 1.8047345,0.31578326 -0.38420603 1.8245928,0.45893437 -0.3368173 1.6604966,0.44875467 -0.37558413 1.5771053,0.5127339 -0.29401463 1.5713916,0.43439847 -0.35174227 1.5256101,0.032129206 -0.50203264 1.6174664,0.022220898 -0.4440313 1.5056399,0.28090334 -0.36908174 1.4799007,0.5044364 -0.33947465 1.489243,0.59881073 -0.33550742 1.5209023,0.6848701 -0.38448843 1.4962162,0.6057264 -0.39477438 1.4956344,-0.018186197 -0.09465624 1.8957438,0.1555418 0.23633114 1.9864779,0.016426923 0.5529227 2.111224,0.14260289 0.67485774 2.1513941,-0.0921063 -0.050460033 1.7531126,0.02916976 0.30770135 1.6848418,-0.070690446 0.64283776 1.8101997,0.019481279 0.77330065 1.7624843,0.07819992 -0.6098335 1.6087703,0.22578931 -0.5691887 1.5886592,0.21641137 -0.6168276 1.6117893,0.12622857 -0.6643969 1.678436,0.21064015 -0.60868907 1.5625528,0.1013714 -0.6555933 1.5212101
